Language model created by QuickLM on Thu Nov  3 22:06:44 EDT 2022
Copyright (c) 1996-2010 Carnegie Mellon University and Alexander I. Rudnicky

The model is in standard ARPA format, designed by Doug Paul while he was at MITRE.

The code that was used to produce this language model is available in Open Source.
Please visit http://www.speech.cs.cmu.edu/tools/ for more information

The (fixed) discount mass is 0.5. The backoffs are computed using the ratio method.
This model based on a corpus of 953 sentences and 912 words

\data\
ngram 1=912
ngram 2=1866
ngram 3=1022

\1-grams:
-0.7888 </s> -0.3010
-0.7888 <s> -0.2194
-3.4669 ABOMASNOW -0.2239
-3.7679 ABRA -0.2239
-3.4669 ABSOL -0.2239
-3.7679 ACCELGOR -0.2239
-3.7679 AEGISLASH -0.2239
-3.4669 AERODACTYL -0.2239
-3.4669 AGGRON -0.2239
-3.7679 AIPOM -0.2239
-3.4669 ALAKAZAM -0.2239
-3.7679 ALCREMIE -0.2239
-3.7679 ALOMOMOLA -0.2239
-3.4669 ALTARIA -0.2239
-3.7679 AMAURA -0.2239
-3.7679 AMBIPOM -0.2239
-3.7679 AMOONGUSS -0.2239
-3.4669 AMPHAROS -0.2239
-3.7679 ANORITH -0.2239
-3.7679 APPLETUN -0.2239
-3.7679 APPLIN -0.2239
-3.7679 ARAQUANID -0.2239
-3.7679 ARBOK -0.2239
-3.7679 ARCANINE -0.2239
-3.7679 ARCEUS -0.2239
-3.7679 ARCHEN -0.2239
-3.7679 ARCHEOPS -0.2239
-3.7679 ARCTOVISH -0.2239
-3.7679 ARCTOZOLT -0.2239
-3.7679 ARIADOS -0.2239
-3.7679 ARMALDO -0.2239
-3.7679 AROMATISSE -0.2239
-3.7679 ARON -0.2239
-3.7679 ARROKUDA -0.2239
-3.7679 ARTICUNO -0.2239
-3.4669 AUDINO -0.2239
-3.7679 AURORUS -0.2239
-3.7679 AVALUGG -0.2239
-3.7679 AXEW -0.2239
-3.7679 AZELF -0.2239
-3.7679 AZUMARILL -0.2239
-3.7679 AZURILL -0.2239
-3.7679 BAGON -0.2239
-3.7679 BALTOY -0.2239
-3.4669 BANETTE -0.2239
-3.7679 BARBARACLE -0.2239
-3.7679 BARBOACH -0.2239
-3.7679 BARRASKEWDA -0.2239
-3.7679 BASCULIN -0.2239
-3.7679 BASTIODON -0.2239
-3.7679 BAYLEEF -0.2239
-3.7679 BEARTIC -0.2239
-3.7679 BEAUTIFLY -0.2239
-3.4669 BEEDRILL -0.2239
-3.7679 BEHEEYEM -0.2239
-3.7679 BELDUM -0.2239
-3.7679 BELLOSSOM -0.2239
-3.7679 BELLSPROUT -0.2239
-3.7679 BERGMITE -0.2239
-3.7679 BEWEAR -0.2239
-3.7679 BIBAREL -0.2239
-3.7679 BIDOOF -0.2239
-3.7679 BINACLE -0.2239
-3.7679 BISHARP -0.2239
-3.7679 BLACEPHALON -0.2239
-3.4669 BLASTOISE -0.2239
-3.4669 BLAZIKEN -0.2239
-3.7679 BLIPBUG -0.2239
-3.7679 BLISSEY -0.2239
-3.7679 BLITZLE -0.2239
-3.7679 BOLDORE -0.2239
-3.7679 BOLTUND -0.2239
-3.7679 BONSLY -0.2239
-3.7679 BOUFFALANT -0.2239
-3.7679 BOUNSWEET -0.2239
-3.7679 BRAIXEN -0.2239
-3.7679 BRAVIARY -0.2239
-3.7679 BRELOOM -0.2239
-3.7679 BRIONNE -0.2239
-3.7679 BRONZONG -0.2239
-3.7679 BRONZOR -0.2239
-3.7679 BRUXISH -0.2239
-3.7679 BUDEW -0.2239
-3.7679 BUIZEL -0.2239
-3.7679 BULBASAUR -0.2239
-3.7679 BULU -0.2239
-3.7679 BUNEARY -0.2239
-3.7679 BUNNELBY -0.2239
-3.7679 BURMY -0.2239
-3.7679 BUTTERFREE -0.2239
-3.7679 BUZZWOLE -0.2239
-3.7679 CACNEA -0.2239
-3.7679 CACTURNE -0.2239
-3.2908 CALYREX -0.3008
-3.4669 CAMERUPT -0.2239
-3.7679 CARBINK -0.2239
-3.7679 CARKOL -0.2239
-3.7679 CARNIVINE -0.2239
-3.7679 CARRACOSTA -0.2239
-3.7679 CARVANHA -0.2239
-3.7679 CASCOON -0.2239
-3.7679 CASTFORM -0.2239
-3.7679 CATERPIE -0.2239
-3.7679 CELEBI -0.2239
-3.7679 CELESTEELA -0.2239
-3.7679 CENTISKORCH -0.2239
-3.7679 CHANDELURE -0.2239
-3.7679 CHANSEY -0.2239
-3.2908 CHARIZARD -0.2236
-3.7679 CHARJABUG -0.2239
-3.7679 CHARMANDER -0.2239
-3.7679 CHARMELEON -0.2239
-3.7679 CHATOT -0.2239
-3.7679 CHERRIM -0.2239
-3.7679 CHERUBI -0.2239
-3.7679 CHESNAUGHT -0.2239
-3.7679 CHESPIN -0.2239
-3.7679 CHEWTLE -0.2239
-3.7679 CHIKORITA -0.2239
-3.7679 CHIMCHAR -0.2239
-3.7679 CHIMECHO -0.2239
-3.7679 CHINCHOU -0.2239
-3.7679 CHINGLING -0.2239
-3.7679 CINCCINO -0.2239
-3.7679 CINDERACE -0.2239
-3.7679 CLAMPERL -0.2239
-3.7679 CLAUNCHER -0.2239
-3.7679 CLAWITZER -0.2239
-3.7679 CLAYDOL -0.2239
-3.7679 CLEFABLE -0.2239
-3.7679 CLEFAIRY -0.2239
-3.7679 CLEFFA -0.2239
-3.7679 CLOBBOPUS -0.2239
-3.7679 CLOYSTER -0.2239
-3.7679 COALOSSAL -0.2239
-3.7679 COBALION -0.2239
-3.7679 COFAGRIGUS -0.2239
-3.7679 COMBEE -0.2239
-3.7679 COMBUSKEN -0.2239
-3.7679 COMFEY -0.2239
-3.7679 CONKELDURR -0.2239
-3.7679 COPPERAJAH -0.2239
-3.7679 CORPHISH -0.2239
-3.7679 CORSOLA -0.2239
-3.7679 CORVIKNIGHT -0.2239
-3.7679 COSMOEM -0.2239
-3.7679 COSMOG -0.2239
-3.7679 COTTONEE -0.2239
-3.7679 CRABOMINABLE -0.2239
-3.7679 CRABRAWLER -0.2239
-3.7679 CRADILY -0.2239
-3.7679 CRAMORANT -0.2239
-3.7679 CRANIDOS -0.2239
-3.7679 CRAWDAUNT -0.2239
-3.7679 CRESSELIA -0.2239
-3.7679 CROAGUNK -0.2239
-3.7679 CROBAT -0.2239
-3.7679 CROCONAW -0.2239
-3.7679 CROVISQUIRE -0.2239
-3.7679 CRUSTLE -0.2239
-3.7679 CRYOGONAL -0.2239
-3.7679 CUBCHOO -0.2239
-3.7679 CUBONE -0.2239
-3.7679 CUFANT -0.2239
-3.7679 CURSOLA -0.2239
-3.7679 CUTIEFLY -0.2239
-3.7679 CYNDAQUIL -0.2239
-3.7679 DARKRAI -0.2239
-3.7679 DARMANITAN -0.2239
-3.7679 DARTRIX -0.2239
-3.7679 DARUMAKA -0.2239
-3.7679 DECIDUEYE -0.2239
-3.7679 DEDENNE -0.2239
-3.7679 DEERLING -0.2239
-3.7679 DEINO -0.2239
-3.7679 DELCATTY -0.2239
-3.7679 DELIBIRD -0.2239
-3.7679 DELPHOX -0.2239
-3.7679 DEOXYS -0.2239
-3.7679 DEWGONG -0.2239
-3.7679 DEWOTT -0.2239
-3.7679 DEWPIDER -0.2239
-3.7679 DHELMISE -0.2239
-3.7679 DIALGA -0.2239
-3.4669 DIANCIE -0.2239
-3.7679 DIGGERSBY -0.2239
-3.7679 DIGLETT -0.2239
-3.7679 DITTO -0.2239
-3.7679 DODRIO -0.2239
-3.7679 DODUO -0.2239
-3.7679 DONPHAN -0.2239
-3.7679 DOTTLER -0.2239
-3.7679 DOUBLADE -0.2239
-3.7679 DRACOVISH -0.2239
-3.7679 DRACOZOLT -0.2239
-3.7679 DRAGALGE -0.2239
-3.7679 DRAGAPULT -0.2239
-3.7679 DRAGONAIR -0.2239
-3.7679 DRAGONITE -0.2239
-3.7679 DRAKLOAK -0.2239
-3.7679 DRAMPA -0.2239
-3.7679 DRAPION -0.2239
-3.7679 DRATINI -0.2239
-3.7679 DREDNAW -0.2239
-3.7679 DREEPY -0.2239
-3.7679 DRIFBLIM -0.2239
-3.7679 DRIFLOON -0.2239
-3.7679 DRILBUR -0.2239
-3.7679 DRIZZILE -0.2239
-3.7679 DROWZEE -0.2239
-3.7679 DRUDDIGON -0.2239
-3.7679 DUBWOOL -0.2239
-3.7679 DUCKLETT -0.2239
-3.7679 DUGTRIO -0.2239
-3.7679 DUNSPARCE -0.2239
-3.7679 DUOSION -0.2239
-3.7679 DURALUDON -0.2239
-3.7679 DURANT -0.2239
-3.7679 DUSCLOPS -0.2239
-3.7679 DUSKNOIR -0.2239
-3.7679 DUSKULL -0.2239
-3.7679 DUSTOX -0.2239
-3.7679 DWEBBLE -0.2239
-3.7679 EELEKTRIK -0.2239
-3.7679 EELEKTROSS -0.2239
-3.7679 EEVEE -0.2239
-3.7679 EISCUE -0.2239
-3.7679 EKANS -0.2239
-3.7679 ELDEGOSS -0.2239
-3.7679 ELECTABUZZ -0.2239
-3.7679 ELECTIVIRE -0.2239
-3.7679 ELECTRIKE -0.2239
-3.7679 ELECTRODE -0.2239
-3.7679 ELEKID -0.2239
-3.7679 ELGYEM -0.2239
-3.7679 EMBOAR -0.2239
-3.7679 EMOLGA -0.2239
-3.7679 EMPOLEON -0.2239
-3.7679 ENTEI -0.2239
-3.7679 ESCAVALIER -0.2239
-3.7679 ESPEON -0.2239
-3.7679 ESPURR -0.2239
-3.7679 ETERNATUS -0.2239
-3.7679 EXCADRILL -0.2239
-3.7679 EXEGGCUTE -0.2239
-3.7679 EXEGGUTOR -0.2239
-3.7679 EXPLOUD -0.2239
-3.2908 F -0.2239
-3.7679 FALINKS -0.2239
-3.7679 FARFETCH'D -0.2239
-3.7679 FEAROW -0.2239
-3.7679 FEEBAS -0.2239
-3.7679 FENNEKIN -0.2239
-3.7679 FERALIGATR -0.2239
-3.7679 FERROSEED -0.2239
-3.7679 FERROTHORN -0.2239
-3.7679 FINI -0.2239
-3.7679 FINNEON -0.2239
-3.7679 FLAAFFY -0.2239
-3.7679 FLABEBE -0.2239
-3.7679 FLAPPLE -0.2239
-3.7679 FLAREON -0.2239
-3.7679 FLETCHINDER -0.2239
-3.7679 FLETCHLING -0.2239
-3.7679 FLOATZEL -0.2239
-3.7679 FLOETTE -0.2239
-3.7679 FLORGES -0.2239
-3.7679 FLYGON -0.2239
-3.7679 FOMANTIS -0.2239
-3.7679 FOONGUS -0.2239
-3.7679 FORRETRESS -0.2239
-3.7679 FRAXURE -0.2239
-3.7679 FRILLISH -0.2239
-3.7679 FROAKIE -0.2239
-3.7679 FROGADIER -0.2239
-3.7679 FROSLASS -0.2239
-3.7679 FROSMOTH -0.2239
-3.7679 FURFROU -0.2239
-3.7679 FURRET -0.2239
-3.7679 GABITE -0.2239
-3.4669 GALLADE -0.2239
-3.7679 GALVANTULA -0.2239
-3.7679 GARBODOR -0.2239
-3.4669 GARCHOMP -0.2239
-3.4669 GARDEVOIR -0.2239
-3.7679 GASTLY -0.2239
-3.7679 GASTRODON -0.2239
-3.7679 GENESECT -0.2239
-3.4669 GENGAR -0.2239
-3.7679 GEODUDE -0.2239
-3.7679 GHOST -0.2239
-3.7679 GIBLE -0.2239
-3.7679 GIGALITH -0.2239
-3.7679 GIRAFARIG -0.2239
-3.7679 GIRATINA -0.2239
-3.7679 GLACEON -0.2239
-3.4669 GLALIE -0.2239
-3.7679 GLAMEOW -0.2239
-3.7679 GLASTRIER -0.2239
-3.7679 GLIGAR -0.2239
-3.7679 GLISCOR -0.2239
-3.7679 GLOOM -0.2239
-3.7679 GOGOAT -0.2239
-3.7679 GOLBAT -0.2239
-3.7679 GOLDEEN -0.2239
-3.7679 GOLDUCK -0.2239
-3.7679 GOLEM -0.2239
-3.7679 GOLETT -0.2239
-3.7679 GOLISOPOD -0.2239
-3.7679 GOLURK -0.2239
-3.7679 GOODRA -0.2239
-3.7679 GOOMY -0.2239
-3.7679 GOREBYSS -0.2239
-3.7679 GOSSIFLEUR -0.2239
-3.7679 GOTHITA -0.2239
-3.7679 GOTHITELLE -0.2239
-3.7679 GOTHORITA -0.2239
-3.7679 GOURGEIST -0.2239
-3.7679 GRANBULL -0.2239
-3.7679 GRAPPLOCT -0.2239
-3.7679 GRASS -0.2239
-3.7679 GRAVELER -0.2239
-3.7679 GREEDENT -0.2239
-3.7679 GRENINJA -0.2239
-3.7679 GRIMER -0.2239
-3.7679 GRIMMSNARL -0.2239
-3.7679 GROOKEY -0.2239
-3.7679 GROTLE -0.2239
-3.4669 GROUDON -0.2239
-3.7679 GROVYLE -0.2239
-3.7679 GROWLITHE -0.2239
-3.7679 GRUBBIN -0.2239
-3.7679 GRUMPIG -0.2239
-3.7679 GULPIN -0.2239
-3.7679 GUMSHOOS -0.2239
-3.7679 GURDURR -0.2239
-3.7679 GUZZLORD -0.2239
-3.4669 GYARADOS -0.2239
-3.7679 HAKAMO-O -0.2239
-3.7679 HAPPINY -0.2239
-3.7679 HARIYAMA -0.2239
-3.7679 HATENNA -0.2239
-3.7679 HATTERENE -0.2239
-3.7679 HATTREM -0.2239
-3.7679 HAUNTER -0.2239
-3.7679 HAWLUCHA -0.2239
-3.7679 HAXORUS -0.2239
-3.7679 HEATMOR -0.2239
-3.7679 HEATRAN -0.2239
-3.7679 HELIOLISK -0.2239
-3.7679 HELIOPTILE -0.2239
-3.4669 HERACROSS -0.2239
-3.7679 HERDIER -0.2239
-3.7679 HIPPOPOTAS -0.2239
-3.7679 HIPPOWDON -0.2239
-3.7679 HITMONCHAN -0.2239
-3.7679 HITMONLEE -0.2239
-3.7679 HITMONTOP -0.2239
-3.7679 HO-OH -0.2239
-3.7679 HONCHKROW -0.2239
-3.7679 HONEDGE -0.2239
-3.7679 HOOPA -0.2239
-3.7679 HOOTHOOT -0.2239
-3.7679 HOPPIP -0.2239
-3.7679 HORSEA -0.2239
-3.4669 HOUNDOOM -0.2239
-3.7679 HOUNDOUR -0.2239
-3.7679 HUNTAIL -0.2239
-3.7679 HYDREIGON -0.2239
-3.7679 HYPNO -0.2239
-3.7679 ICE -0.2239
-3.7679 IGGLYBUFF -0.2239
-3.7679 ILLUMISE -0.2239
-3.7679 IMPIDIMP -0.2239
-3.7679 INCINEROAR -0.2239
-3.4669 INDEEDEE -0.3006
-3.7679 INFERNAPE -0.2239
-3.7679 INKAY -0.2239
-3.7679 INTELEON -0.2239
-3.7679 IVYSAUR -0.2239
-3.7679 JANGMO-O -0.2239
-3.7679 JELLICENT -0.2239
-3.7679 JIGGLYPUFF -0.2239
-3.7679 JIRACHI -0.2239
-3.7679 JOLTEON -0.2239
-3.7679 JOLTIK -0.2239
-3.7679 JR. -0.2239
-3.7679 JUMPLUFF -0.2239
-3.7679 JYNX -0.2239
-3.7679 KABUTO -0.2239
-3.7679 KABUTOPS -0.2239
-3.7679 KADABRA -0.2239
-3.7679 KAKUNA -0.2239
-3.4669 KANGASKHAN -0.2239
-3.7679 KARRABLAST -0.2239
-3.7679 KARTANA -0.2239
-3.7679 KECLEON -0.2239
-3.7679 KELDEO -0.2239
-3.7679 KINGDRA -0.2239
-3.7679 KINGLER -0.2239
-3.7679 KIRLIA -0.2239
-3.7679 KLANG -0.2239
-3.7679 KLEFKI -0.2239
-3.7679 KLINK -0.2239
-3.7679 KLINKLANG -0.2239
-3.7679 KOFFING -0.2239
-3.7679 KOKO -0.2239
-3.7679 KOMALA -0.2239
-3.7679 KOMMO-O -0.2239
-3.7679 KRABBY -0.2239
-3.7679 KRICKETOT -0.2239
-3.7679 KRICKETUNE -0.2239
-3.7679 KROKOROK -0.2239
-3.7679 KROOKODILE -0.2239
-3.7679 KUBFU -0.2239
-3.4669 KYOGRE -0.2239
-3.7679 KYUREM -0.2239
-3.7679 LAIRON -0.2239
-3.7679 LAMPENT -0.2239
-3.7679 LANDORUS -0.2239
-3.7679 LANTURN -0.2239
-3.7679 LAPRAS -0.2239
-3.7679 LARVESTA -0.2239
-3.7679 LARVITAR -0.2239
-3.4669 LATIAS -0.2239
-3.4669 LATIOS -0.2239
-3.7679 LEAFEON -0.2239
-3.7679 LEAVANNY -0.2239
-3.7679 LEDIAN -0.2239
-3.7679 LEDYBA -0.2239
-3.7679 LELE -0.2239
-3.7679 LICKILICKY -0.2239
-3.7679 LICKITUNG -0.2239
-3.7679 LIEPARD -0.2239
-3.7679 LILEEP -0.2239
-3.7679 LILLIGANT -0.2239
-3.7679 LILLIPUP -0.2239
-3.7679 LINOONE -0.2239
-3.7679 LITLEO -0.2239
-3.7679 LITTEN -0.2239
-3.7679 LITWICK -0.2239
-3.7679 LOMBRE -0.2239
-3.4669 LOPUNNY -0.2239
-3.7679 LOTAD -0.2239
-3.7679 LOUDRED -0.2239
-3.4669 LUCARIO -0.2239
-3.7679 LUDICOLO -0.2239
-3.7679 LUGIA -0.2239
-3.7679 LUMINEON -0.2239
-3.7679 LUNALA -0.2239
-3.7679 LUNATONE -0.2239
-3.7679 LURANTIS -0.2239
-3.7679 LUVDISC -0.2239
-3.7679 LUXIO -0.2239
-3.7679 LUXRAY -0.2239
-3.7679 LYCANROC -0.2239
-3.2908 M -0.2239
-3.7679 MACHAMP -0.2239
-3.7679 MACHOKE -0.2239
-3.7679 MACHOP -0.2239
-3.7679 MAGBY -0.2239
-3.7679 MAGCARGO -0.2239
-3.7679 MAGEARNA -0.2239
-3.7679 MAGIKARP -0.2239
-3.7679 MAGMAR -0.2239
-3.7679 MAGMORTAR -0.2239
-3.7679 MAGNEMITE -0.2239
-3.7679 MAGNETON -0.2239
-3.7679 MAGNEZONE -0.2239
-3.7679 MAKUHITA -0.2239
-3.7679 MALAMAR -0.2239
-3.7679 MAMOSWINE -0.2239
-3.7679 MANAPHY -0.2239
-3.7679 MANDIBUZZ -0.2239
-3.4669 MANECTRIC -0.2239
-3.7679 MANKEY -0.2239
-3.7679 MANTINE -0.2239
-3.7679 MANTYKE -0.2239
-3.7679 MARACTUS -0.2239
-3.7679 MAREANIE -0.2239
-3.7679 MAREEP -0.2239
-3.7679 MARILL -0.2239
-3.7679 MAROWAK -0.2239
-3.7679 MARSHADOW -0.2239
-3.7679 MARSHTOMP -0.2239
-3.7679 MASQUERAIN -0.2239
-3.4669 MAWILE -0.2239
-3.4669 MEDICHAM -0.2239
-3.7679 MEDITITE -0.2239
-2.0867 MEGA -0.2940
-3.7679 MEGANIUM -0.2239
-3.7679 MELMETAL -0.2239
-3.7679 MELOETTA -0.2239
-3.7679 MELTAN -0.2239
-3.4669 MEOWSTIC -0.3006
-3.7679 MEOWTH -0.2239
-3.7679 MESPRIT -0.2239
-3.4669 METAGROSS -0.2239
-3.7679 METANG -0.2239
-3.7679 METAPOD -0.2239
-3.7679 MEW -0.2239
-3.2908 MEWTWO -0.2236
-3.7679 MIENFOO -0.2239
-3.7679 MIENSHAO -0.2239
-3.7679 MIGHTYENA -0.2239
-3.7679 MILCERY -0.2239
-3.7679 MILOTIC -0.2239
-3.7679 MILTANK -0.2239
-3.4669 MIME -0.2239
-3.7679 MIMIKYU -0.2239
-3.7679 MINCCINO -0.2239
-3.7679 MINIOR -0.2239
-3.7679 MINUN -0.2239
-3.7679 MISDREAVUS -0.2239
-3.7679 MISMAGIUS -0.2239
-3.7679 MOLTRES -0.2239
-3.7679 MONFERNO -0.2239
-3.7679 MORELULL -0.2239
-3.7679 MORGREM -0.2239
-3.7679 MORPEKO -0.2239
-3.7679 MOTHIM -0.2239
-3.4669 MR. -0.3008
-3.7679 MUDBRAY -0.2239
-3.7679 MUDKIP -0.2239
-3.7679 MUDSDALE -0.2239
-3.7679 MUK -0.2239
-3.7679 MUNCHLAX -0.2239
-3.7679 MUNNA -0.2239
-3.7679 MURKROW -0.2239
-3.7679 MUSHARNA -0.2239
-3.7679 NAGANADEL -0.2239
-3.7679 NATU -0.2239
-3.7679 NECROZMA -0.2239
-3.7679 NICKIT -0.2239
-3.7679 NIDOKING -0.2239
-3.7679 NIDOQUEEN -0.2239
-3.4669 NIDORAN -0.3006
-3.7679 NIDORINA -0.2239
-3.7679 NIDORINO -0.2239
-3.7679 NIHILEGO -0.2239
-3.7679 NINCADA -0.2239
-3.7679 NINETALES -0.2239
-3.7679 NINJASK -0.2239
-3.7679 NOCTOWL -0.2239
-3.7679 NOIBAT -0.2239
-3.7679 NOIVERN -0.2239
-3.7679 NOSEPASS -0.2239
-3.7679 NULL -0.2239
-3.7679 NUMEL -0.2239
-3.7679 NUZLEAF -0.2239
-3.7679 OBSTAGOON -0.2239
-3.7679 OCTILLERY -0.2239
-3.7679 ODDISH -0.2239
-3.7679 OMANYTE -0.2239
-3.7679 OMASTAR -0.2239
-3.7679 ONIX -0.2239
-3.7679 ORANGURU -0.2239
-3.7679 ORBEETLE -0.2239
-3.7679 ORICORIO -0.2239
-3.7679 OSHAWOTT -0.2239
-3.7679 PACHIRISU -0.2239
-3.7679 PALKIA -0.2239
-3.7679 PALOSSAND -0.2239
-3.7679 PALPITOAD -0.2239
-3.7679 PANCHAM -0.2239
-3.7679 PANGORO -0.2239
-3.7679 PANPOUR -0.2239
-3.7679 PANSAGE -0.2239
-3.7679 PANSEAR -0.2239
-3.7679 PARAS -0.2239
-3.7679 PARASECT -0.2239
-3.7679 PASSIMIAN -0.2239
-3.7679 PATRAT -0.2239
-3.7679 PAWNIARD -0.2239
-3.7679 PELIPPER -0.2239
-3.7679 PERRSERKER -0.2239
-3.7679 PERSIAN -0.2239
-3.7679 PETILIL -0.2239
-3.7679 PHANPY -0.2239
-3.7679 PHANTUMP -0.2239
-3.7679 PHEROMOSA -0.2239
-3.7679 PHIONE -0.2239
-3.7679 PICHU -0.2239
-3.4669 PIDGEOT -0.2239
-3.7679 PIDGEOTTO -0.2239
-3.7679 PIDGEY -0.2239
-3.7679 PIDOVE -0.2239
-3.7679 PIGNITE -0.2239
-3.7679 PIKACHU -0.2239
-3.7679 PIKIPEK -0.2239
-3.7679 PILOSWINE -0.2239
-3.7679 PINCURCHIN -0.2239
-3.7679 PINECO -0.2239
-3.4669 PINSIR -0.2239
-3.7679 PIPLUP -0.2239
-3.7679 PLUSLE -0.2239
-3.7679 POIPOLE -0.2239
-3.7679 POLITOED -0.2239
-3.7679 POLIWAG -0.2239
-3.7679 POLIWHIRL -0.2239
-3.7679 POLIWRATH -0.2239
-3.7679 POLTEAGEIST -0.2239
-3.7679 PONYTA -0.2239
-3.7679 POOCHYENA -0.2239
-3.7679 POPPLIO -0.2239
-3.7679 PORYGON -0.2239
-3.7679 PORYGON-Z -0.2239
-3.7679 PORYGON2 -0.2239
-3.4669 PRIMAL -0.3007
-3.7679 PRIMARINA -0.2239
-3.7679 PRIMEAPE -0.2239
-3.7679 PRINPLUP -0.2239
-3.7679 PROBOPASS -0.2239
-3.7679 PSYDUCK -0.2239
-3.7679 PUMPKABOO -0.2239
-3.7679 PUPITAR -0.2239
-3.7679 PURRLOIN -0.2239
-3.7679 PURUGLY -0.2239
-3.7679 PYROAR -0.2239
-3.7679 PYUKUMUKU -0.2239
-3.7679 QUAGSIRE -0.2239
-3.7679 QUILAVA -0.2239
-3.7679 QUILLADIN -0.2239
-3.7679 QWILFISH -0.2239
-3.7679 RABOOT -0.2239
-3.7679 RAICHU -0.2239
-3.7679 RAIKOU -0.2239
-3.7679 RALTS -0.2239
-3.7679 RAMPARDOS -0.2239
-3.7679 RAPIDASH -0.2239
-3.7679 RATICATE -0.2239
-3.7679 RATTATA -0.2239
-3.4669 RAYQUAZA -0.2239
-3.7679 REGICE -0.2239
-3.7679 REGIDRAGO -0.2239
-3.7679 REGIELEKI -0.2239
-3.7679 REGIGIGAS -0.2239
-3.7679 REGIROCK -0.2239
-3.7679 REGISTEEL -0.2239
-3.7679 RELICANTH -0.2239
-3.7679 REMORAID -0.2239
-3.7679 RESHIRAM -0.2239
-3.7679 REUNICLUS -0.2239
-3.7679 RHYDON -0.2239
-3.7679 RHYHORN -0.2239
-3.7679 RHYPERIOR -0.2239
-3.7679 RIBOMBEE -0.2239
-3.7679 RILLABOOM -0.2239
-3.7679 RIME -0.2239
-3.7679 RIOLU -0.2239
-3.7679 ROCKRUFF -0.2239
-3.7679 ROGGENROLA -0.2239
-3.7679 ROLYCOLY -0.2239
-3.7679 ROOKIDEE -0.2239
-3.7679 ROSELIA -0.2239
-3.7679 ROSERADE -0.2239
-3.7679 ROTOM -0.2239
-3.7679 ROWLET -0.2239
-3.7679 RUFFLET -0.2239
-3.7679 RUNERIGUS -0.2239
-3.4669 SABLEYE -0.2239
-3.4669 SALAMENCE -0.2239
-3.7679 SALANDIT -0.2239
-3.7679 SALAZZLE -0.2239
-3.7679 SAMUROTT -0.2239
-3.7679 SANDACONDA -0.2239
-3.7679 SANDILE -0.2239
-3.7679 SANDSHREW -0.2239
-3.7679 SANDSLASH -0.2239
-3.7679 SANDYGAST -0.2239
-3.7679 SAWK -0.2239
-3.7679 SAWSBUCK -0.2239
-3.7679 SCATTERBUG -0.2239
-3.4669 SCEPTILE -0.2239
-3.4669 SCIZOR -0.2239
-3.7679 SCOLIPEDE -0.2239
-3.7679 SCORBUNNY -0.2239
-3.7679 SCRAFTY -0.2239
-3.7679 SCRAGGY -0.2239
-3.7679 SCYTHER -0.2239
-3.7679 SEADRA -0.2239
-3.7679 SEAKING -0.2239
-3.7679 SEALEO -0.2239
-3.7679 SEEDOT -0.2239
-3.7679 SEEL -0.2239
-3.7679 SEISMITOAD -0.2239
-3.7679 SENTRET -0.2239
-3.7679 SERPERIOR -0.2239
-3.7679 SERVINE -0.2239
-3.7679 SEVIPER -0.2239
-3.7679 SEWADDLE -0.2239
-3.4669 SHARPEDO -0.2239
-3.7679 SHAYMIN -0.2239
-3.7679 SHEDINJA -0.2239
-3.7679 SHELGON -0.2239
-3.7679 SHELLDER -0.2239
-3.7679 SHELLOS -0.2239
-3.7679 SHELMET -0.2239
-3.7679 SHIELDON -0.2239
-3.7679 SHIFTRY -0.2239
-3.7679 SHIINOTIC -0.2239
-3.7679 SHINX -0.2239
-3.7679 SHROOMISH -0.2239
-3.7679 SHUCKLE -0.2239
-3.7679 SHUPPET -0.2239
-3.7679 SIGILYPH -0.2239
-3.7679 SILCOON -0.2239
-3.7679 SILICOBRA -0.2239
-3.7679 SILVALLY -0.2239
-3.7679 SIMIPOUR -0.2239
-3.7679 SIMISAGE -0.2239
-3.7679 SIMISEAR -0.2239
-3.7679 SINISTEA -0.2239
-3.7679 SIRFETCH'D -0.2239
-3.7679 SIZZLIPEDE -0.2239
-3.7679 SKARMORY -0.2239
-3.7679 SKIDDO -0.2239
-3.7679 SKIPLOOM -0.2239
-3.7679 SKITTY -0.2239
-3.7679 SKORUPI -0.2239
-3.7679 SKRELP -0.2239
-3.7679 SKUNTANK -0.2239
-3.7679 SKWOVET -0.2239
-3.7679 SLAKING -0.2239
-3.7679 SLAKOTH -0.2239
-3.7679 SLIGGOO -0.2239
-3.4669 SLOWBRO -0.2239
-3.7679 SLOWKING -0.2239
-3.7679 SLOWPOKE -0.2239
-3.7679 SLUGMA -0.2239
-3.7679 SLURPUFF -0.2239
-3.7679 SMEARGLE -0.2239
-3.7679 SMOOCHUM -0.2239
-3.7679 SNEASEL -0.2239
-3.7679 SNIVY -0.2239
-3.7679 SNOM -0.2239
-3.7679 SNORLAX -0.2239
-3.7679 SNORUNT -0.2239
-3.7679 SNOVER -0.2239
-3.7679 SNUBBULL -0.2239
-3.7679 SOBBLE -0.2239
-3.7679 SOLGALEO -0.2239
-3.7679 SOLOSIS -0.2239
-3.7679 SOLROCK -0.2239
-3.7679 SPEAROW -0.2239
-3.7679 SPECTRIER -0.2239
-3.7679 SPEWPA -0.2239
-3.7679 SPHEAL -0.2239
-3.7679 SPINARAK -0.2239
-3.7679 SPINDA -0.2239
-3.7679 SPIRITOMB -0.2239
-3.7679 SPOINK -0.2239
-3.7679 SPRITZEE -0.2239
-3.7679 SQUIRTLE -0.2239
-3.7679 STAKATAKA -0.2239
-3.7679 STANTLER -0.2239
-3.7679 STARAPTOR -0.2239
-3.7679 STARAVIA -0.2239
-3.7679 STARLY -0.2239
-3.7679 STARMIE -0.2239
-3.7679 STARYU -0.2239
-3.4669 STEELIX -0.2239
-3.7679 STEENEE -0.2239
-3.7679 STONJOURNER -0.2239
-3.7679 STOUTLAND -0.2239
-3.7679 STUFFUL -0.2239
-3.7679 STUNFISK -0.2239
-3.7679 STUNKY -0.2239
-3.7679 SUDOWOODO -0.2239
-3.7679 SUICUNE -0.2239
-3.7679 SUNFLORA -0.2239
-3.7679 SUNKERN -0.2239
-3.7679 SURSKIT -0.2239
-3.7679 SWABLU -0.2239
-3.7679 SWADLOON -0.2239
-3.7679 SWALOT -0.2239
-3.4669 SWAMPERT -0.2239
-3.7679 SWANNA -0.2239
-3.7679 SWELLOW -0.2239
-3.7679 SWINUB -0.2239
-3.7679 SWIRLIX -0.2239
-3.7679 SWOOBAT -0.2239
-3.7679 SYLVEON -0.2239
-3.7679 TAILLOW -0.2239
-3.7679 TALONFLAME -0.2239
-3.7679 TANGELA -0.2239
-3.7679 TANGROWTH -0.2239
-3.1658 TAPU -0.3007
-3.7679 TAUROS -0.2239
-3.7679 TEDDIURSA -0.2239
-3.7679 TENTACOOL -0.2239
-3.7679 TENTACRUEL -0.2239
-3.7679 TEPIG -0.2239
-3.7679 TERRAKION -0.2239
-3.7679 THIEVUL -0.2239
-3.7679 THROH -0.2239
-3.7679 THUNDURUS -0.2239
-3.7679 THWACKEY -0.2239
-3.7679 TIMBURR -0.2239
-3.7679 TIRTOUGA -0.2239
-3.7679 TOGEDEMARU -0.2239
-3.7679 TOGEKISS -0.2239
-3.7679 TOGEPI -0.2239
-3.7679 TOGETIC -0.2239
-3.7679 TORCHIC -0.2239
-3.7679 TORKOAL -0.2239
-3.7679 TORNADUS -0.2239
-3.7679 TORRACAT -0.2239
-3.7679 TORTERRA -0.2239
-3.7679 TOTODILE -0.2239
-3.7679 TOUCANNON -0.2239
-3.7679 TOXAPEX -0.2239
-3.7679 TOXEL -0.2239
-3.7679 TOXICROAK -0.2239
-3.7679 TOXTRICITY -0.2239
-3.7679 TRANQUILL -0.2239
-3.7679 TRAPINCH -0.2239
-3.7679 TREECKO -0.2239
-3.7679 TREVENANT -0.2239
-3.7679 TROPIUS -0.2239
-3.7679 TRUBBISH -0.2239
-3.7679 TRUMBEAK -0.2239
-3.7679 TSAREENA -0.2239
-3.7679 TURTONATOR -0.2239
-3.7679 TURTWIG -0.2239
-3.7679 TYMPOLE -0.2239
-3.7679 TYNAMO -0.2239
-3.7679 TYPE: -0.3010
-3.7679 TYPHLOSION -0.2239
-3.4669 TYRANITAR -0.2239
-3.7679 TYRANTRUM -0.2239
-3.7679 TYROGUE -0.2239
-3.7679 TYRUNT -0.2239
-3.7679 UMBREON -0.2239
-3.7679 UNFEZANT -0.2239
-3.7679 UNOWN -0.2239
-3.7679 URSARING -0.2239
-3.7679 URSHIFU -0.2239
-3.7679 UXIE -0.2239
-3.7679 VANILLISH -0.2239
-3.7679 VANILLITE -0.2239
-3.7679 VANILLUXE -0.2239
-3.7679 VAPOREON -0.2239
-3.7679 VENIPEDE -0.2239
-3.7679 VENOMOTH -0.2239
-3.7679 VENONAT -0.2239
-3.4669 VENUSAUR -0.2239
-3.7679 VESPIQUEN -0.2239
-3.7679 VIBRAVA -0.2239
-3.7679 VICTINI -0.2239
-3.7679 VICTREEBEL -0.2239
-3.7679 VIGOROTH -0.2239
-3.7679 VIKAVOLT -0.2239
-3.7679 VILEPLUME -0.2239
-3.7679 VIRIZION -0.2239
-3.7679 VIVILLON -0.2239
-3.7679 VOLBEAT -0.2239
-3.7679 VOLCANION -0.2239
-3.7679 VOLCARONA -0.2239
-3.7679 VOLTORB -0.2239
-3.7679 VULLABY -0.2239
-3.7679 VULPIX -0.2239
-3.7679 WAILMER -0.2239
-3.7679 WAILORD -0.2239
-3.7679 WALREIN -0.2239
-3.7679 WARTORTLE -0.2239
-3.7679 WATCHOG -0.2239
-3.7679 WEAVILE -0.2239
-3.7679 WEEDLE -0.2239
-3.7679 WEEPINBELL -0.2239
-3.7679 WEEZING -0.2239
-3.7679 WHIMSICOTT -0.2239
-3.7679 WHIRLIPEDE -0.2239
-3.7679 WHISCASH -0.2239
-3.7679 WHISMUR -0.2239
-3.7679 WIGGLYTUFF -0.2239
-3.7679 WIMPOD -0.2239
-3.7679 WINGULL -0.2239
-3.7679 WISHIWASHI -0.2239
-3.7679 WOBBUFFET -0.2239
-3.7679 WOOBAT -0.2239
-3.7679 WOOLOO -0.2239
-3.7679 WOOPER -0.2239
-3.7679 WORMADAM -0.2239
-3.7679 WURMPLE -0.2239
-3.7679 WYNAUT -0.2239
-3.4669 X -0.2239
-3.7679 XATU -0.2239
-3.7679 XERNEAS -0.2239
-3.7679 XURKITREE -0.2239
-3.4669 Y -0.2239
-3.7679 YAMASK -0.2239
-3.7679 YAMPER -0.2239
-3.7679 YANMA -0.2239
-3.7679 YANMEGA -0.2239
-3.7679 YUNGOOS -0.2239
-3.7679 YVELTAL -0.2239
-3.7679 ZACIAN -0.2239
-3.7679 ZAMAZANTA -0.2239
-3.7679 ZAMAZENTA -0.2239
-3.7679 ZANGOOSE -0.2239
-3.7679 ZAPDOS -0.2239
-3.7679 ZARUDE -0.2239
-3.7679 ZEBSTRIKA -0.2239
-3.7679 ZEKROM -0.2239
-3.7679 ZERAORA -0.2239
-3.7679 ZIGZAGOON -0.2239
-3.7679 ZOROARK -0.2239
-3.7679 ZORUA -0.2239
-3.7679 ZUBAT -0.2239
-3.7679 ZWEILOUS -0.2239
-3.7679 ZYGARDE -0.2239

\2-grams:
-3.2801 <s> ABOMASNOW 0.0000
-3.2801 <s> ABRA 0.0000
-3.2801 <s> ABSOL 0.0000
-3.2801 <s> ACCELGOR 0.0000
-3.2801 <s> AEGISLASH 0.0000
-3.2801 <s> AERODACTYL 0.0000
-3.2801 <s> AGGRON 0.0000
-3.2801 <s> AIPOM 0.0000
-3.2801 <s> ALAKAZAM 0.0000
-3.2801 <s> ALCREMIE 0.0000
-3.2801 <s> ALOMOMOLA 0.0000
-3.2801 <s> ALTARIA 0.0000
-3.2801 <s> AMAURA 0.0000
-3.2801 <s> AMBIPOM 0.0000
-3.2801 <s> AMOONGUSS 0.0000
-3.2801 <s> AMPHAROS 0.0000
-3.2801 <s> ANORITH 0.0000
-3.2801 <s> APPLETUN 0.0000
-3.2801 <s> APPLIN 0.0000
-3.2801 <s> ARAQUANID 0.0000
-3.2801 <s> ARBOK 0.0000
-3.2801 <s> ARCANINE 0.0000
-3.2801 <s> ARCEUS 0.0000
-3.2801 <s> ARCHEN 0.0000
-3.2801 <s> ARCHEOPS 0.0000
-3.2801 <s> ARCTOVISH 0.0000
-3.2801 <s> ARCTOZOLT 0.0000
-3.2801 <s> ARIADOS 0.0000
-3.2801 <s> ARMALDO 0.0000
-3.2801 <s> AROMATISSE 0.0000
-3.2801 <s> ARON 0.0000
-3.2801 <s> ARROKUDA 0.0000
-3.2801 <s> ARTICUNO 0.0000
-3.2801 <s> AUDINO 0.0000
-3.2801 <s> AURORUS 0.0000
-3.2801 <s> AVALUGG 0.0000
-3.2801 <s> AXEW 0.0000
-3.2801 <s> AZELF 0.0000
-3.2801 <s> AZUMARILL 0.0000
-3.2801 <s> AZURILL 0.0000
-3.2801 <s> BAGON 0.0000
-3.2801 <s> BALTOY 0.0000
-3.2801 <s> BANETTE 0.0000
-3.2801 <s> BARBARACLE 0.0000
-3.2801 <s> BARBOACH 0.0000
-3.2801 <s> BARRASKEWDA 0.0000
-3.2801 <s> BASCULIN 0.0000
-3.2801 <s> BASTIODON 0.0000
-3.2801 <s> BAYLEEF 0.0000
-3.2801 <s> BEARTIC 0.0000
-3.2801 <s> BEAUTIFLY 0.0000
-3.2801 <s> BEEDRILL 0.0000
-3.2801 <s> BEHEEYEM 0.0000
-3.2801 <s> BELDUM 0.0000
-3.2801 <s> BELLOSSOM 0.0000
-3.2801 <s> BELLSPROUT 0.0000
-3.2801 <s> BERGMITE 0.0000
-3.2801 <s> BEWEAR 0.0000
-3.2801 <s> BIBAREL 0.0000
-3.2801 <s> BIDOOF 0.0000
-3.2801 <s> BINACLE 0.0000
-3.2801 <s> BISHARP 0.0000
-3.2801 <s> BLACEPHALON 0.0000
-3.2801 <s> BLASTOISE 0.0000
-3.2801 <s> BLAZIKEN 0.0000
-3.2801 <s> BLIPBUG 0.0000
-3.2801 <s> BLISSEY 0.0000
-3.2801 <s> BLITZLE 0.0000
-3.2801 <s> BOLDORE 0.0000
-3.2801 <s> BOLTUND 0.0000
-3.2801 <s> BONSLY 0.0000
-3.2801 <s> BOUFFALANT 0.0000
-3.2801 <s> BOUNSWEET 0.0000
-3.2801 <s> BRAIXEN 0.0000
-3.2801 <s> BRAVIARY 0.0000
-3.2801 <s> BRELOOM 0.0000
-3.2801 <s> BRIONNE 0.0000
-3.2801 <s> BRONZONG 0.0000
-3.2801 <s> BRONZOR 0.0000
-3.2801 <s> BRUXISH 0.0000
-3.2801 <s> BUDEW 0.0000
-3.2801 <s> BUIZEL 0.0000
-3.2801 <s> BULBASAUR 0.0000
-3.2801 <s> BUNEARY 0.0000
-3.2801 <s> BUNNELBY 0.0000
-3.2801 <s> BURMY 0.0000
-3.2801 <s> BUTTERFREE 0.0000
-3.2801 <s> BUZZWOLE 0.0000
-3.2801 <s> CACNEA 0.0000
-3.2801 <s> CACTURNE 0.0000
-2.8030 <s> CALYREX 0.0000
-3.2801 <s> CAMERUPT 0.0000
-3.2801 <s> CARBINK 0.0000
-3.2801 <s> CARKOL 0.0000
-3.2801 <s> CARNIVINE 0.0000
-3.2801 <s> CARRACOSTA 0.0000
-3.2801 <s> CARVANHA 0.0000
-3.2801 <s> CASCOON 0.0000
-3.2801 <s> CASTFORM 0.0000
-3.2801 <s> CATERPIE 0.0000
-3.2801 <s> CELEBI 0.0000
-3.2801 <s> CELESTEELA 0.0000
-3.2801 <s> CENTISKORCH 0.0000
-3.2801 <s> CHANDELURE 0.0000
-3.2801 <s> CHANSEY 0.0000
-3.2801 <s> CHARIZARD -0.2218
-3.2801 <s> CHARJABUG 0.0000
-3.2801 <s> CHARMANDER 0.0000
-3.2801 <s> CHARMELEON 0.0000
-3.2801 <s> CHATOT 0.0000
-3.2801 <s> CHERRIM 0.0000
-3.2801 <s> CHERUBI 0.0000
-3.2801 <s> CHESNAUGHT 0.0000
-3.2801 <s> CHESPIN 0.0000
-3.2801 <s> CHEWTLE 0.0000
-3.2801 <s> CHIKORITA 0.0000
-3.2801 <s> CHIMCHAR 0.0000
-3.2801 <s> CHIMECHO 0.0000
-3.2801 <s> CHINCHOU 0.0000
-3.2801 <s> CHINGLING 0.0000
-3.2801 <s> CINCCINO 0.0000
-3.2801 <s> CINDERACE 0.0000
-3.2801 <s> CLAMPERL 0.0000
-3.2801 <s> CLAUNCHER 0.0000
-3.2801 <s> CLAWITZER 0.0000
-3.2801 <s> CLAYDOL 0.0000
-3.2801 <s> CLEFABLE 0.0000
-3.2801 <s> CLEFAIRY 0.0000
-3.2801 <s> CLEFFA 0.0000
-3.2801 <s> CLOBBOPUS 0.0000
-3.2801 <s> CLOYSTER 0.0000
-3.2801 <s> COALOSSAL 0.0000
-3.2801 <s> COBALION 0.0000
-3.2801 <s> COFAGRIGUS 0.0000
-3.2801 <s> COMBEE 0.0000
-3.2801 <s> COMBUSKEN 0.0000
-3.2801 <s> COMFEY 0.0000
-3.2801 <s> CONKELDURR 0.0000
-3.2801 <s> COPPERAJAH 0.0000
-3.2801 <s> CORPHISH 0.0000
-3.2801 <s> CORSOLA 0.0000
-3.2801 <s> CORVIKNIGHT 0.0000
-3.2801 <s> COSMOEM 0.0000
-3.2801 <s> COSMOG 0.0000
-3.2801 <s> COTTONEE 0.0000
-3.2801 <s> CRABOMINABLE 0.0000
-3.2801 <s> CRABRAWLER 0.0000
-3.2801 <s> CRADILY 0.0000
-3.2801 <s> CRAMORANT 0.0000
-3.2801 <s> CRANIDOS 0.0000
-3.2801 <s> CRAWDAUNT 0.0000
-3.2801 <s> CRESSELIA 0.0000
-3.2801 <s> CROAGUNK 0.0000
-3.2801 <s> CROBAT 0.0000
-3.2801 <s> CROCONAW 0.0000
-3.2801 <s> CROVISQUIRE 0.0000
-3.2801 <s> CRUSTLE 0.0000
-3.2801 <s> CRYOGONAL 0.0000
-3.2801 <s> CUBCHOO 0.0000
-3.2801 <s> CUBONE 0.0000
-3.2801 <s> CUFANT 0.0000
-3.2801 <s> CURSOLA 0.0000
-3.2801 <s> CUTIEFLY 0.0000
-3.2801 <s> CYNDAQUIL 0.0000
-3.2801 <s> DARKRAI 0.0000
-3.2801 <s> DARMANITAN 0.0000
-3.2801 <s> DARTRIX 0.0000
-3.2801 <s> DARUMAKA 0.0000
-3.2801 <s> DECIDUEYE 0.0000
-3.2801 <s> DEDENNE 0.0000
-3.2801 <s> DEERLING 0.0000
-3.2801 <s> DEINO 0.0000
-3.2801 <s> DELCATTY 0.0000
-3.2801 <s> DELIBIRD 0.0000
-3.2801 <s> DELPHOX 0.0000
-3.2801 <s> DEOXYS 0.0000
-3.2801 <s> DEWGONG 0.0000
-3.2801 <s> DEWOTT 0.0000
-3.2801 <s> DEWPIDER 0.0000
-3.2801 <s> DHELMISE 0.0000
-3.2801 <s> DIALGA 0.0000
-3.2801 <s> DIANCIE 0.0000
-3.2801 <s> DIGGERSBY 0.0000
-3.2801 <s> DIGLETT 0.0000
-3.2801 <s> DITTO 0.0000
-3.2801 <s> DODRIO 0.0000
-3.2801 <s> DODUO 0.0000
-3.2801 <s> DONPHAN 0.0000
-3.2801 <s> DOTTLER 0.0000
-3.2801 <s> DOUBLADE 0.0000
-3.2801 <s> DRACOVISH 0.0000
-3.2801 <s> DRACOZOLT 0.0000
-3.2801 <s> DRAGALGE 0.0000
-3.2801 <s> DRAGAPULT 0.0000
-3.2801 <s> DRAGONAIR 0.0000
-3.2801 <s> DRAGONITE 0.0000
-3.2801 <s> DRAKLOAK 0.0000
-3.2801 <s> DRAMPA 0.0000
-3.2801 <s> DRAPION 0.0000
-3.2801 <s> DRATINI 0.0000
-3.2801 <s> DREDNAW 0.0000
-3.2801 <s> DREEPY 0.0000
-3.2801 <s> DRIFBLIM 0.0000
-3.2801 <s> DRIFLOON 0.0000
-3.2801 <s> DRILBUR 0.0000
-3.2801 <s> DRIZZILE 0.0000
-3.2801 <s> DROWZEE 0.0000
-3.2801 <s> DRUDDIGON 0.0000
-3.2801 <s> DUBWOOL 0.0000
-3.2801 <s> DUCKLETT 0.0000
-3.2801 <s> DUGTRIO 0.0000
-3.2801 <s> DUNSPARCE 0.0000
-3.2801 <s> DUOSION 0.0000
-3.2801 <s> DURALUDON 0.0000
-3.2801 <s> DURANT 0.0000
-3.2801 <s> DUSCLOPS 0.0000
-3.2801 <s> DUSKNOIR 0.0000
-3.2801 <s> DUSKULL 0.0000
-3.2801 <s> DUSTOX 0.0000
-3.2801 <s> DWEBBLE 0.0000
-3.2801 <s> EELEKTRIK 0.0000
-3.2801 <s> EELEKTROSS 0.0000
-3.2801 <s> EEVEE 0.0000
-3.2801 <s> EISCUE 0.0000
-3.2801 <s> EKANS 0.0000
-3.2801 <s> ELDEGOSS 0.0000
-3.2801 <s> ELECTABUZZ 0.0000
-3.2801 <s> ELECTIVIRE 0.0000
-3.2801 <s> ELECTRIKE 0.0000
-3.2801 <s> ELECTRODE 0.0000
-3.2801 <s> ELEKID 0.0000
-3.2801 <s> ELGYEM 0.0000
-3.2801 <s> EMBOAR 0.0000
-3.2801 <s> EMOLGA 0.0000
-3.2801 <s> EMPOLEON 0.0000
-3.2801 <s> ENTEI 0.0000
-3.2801 <s> ESCAVALIER 0.0000
-3.2801 <s> ESPEON 0.0000
-3.2801 <s> ESPURR 0.0000
-3.2801 <s> ETERNATUS 0.0000
-3.2801 <s> EXCADRILL 0.0000
-3.2801 <s> EXEGGCUTE 0.0000
-3.2801 <s> EXEGGUTOR 0.0000
-3.2801 <s> EXPLOUD 0.0000
-3.2801 <s> FALINKS 0.0000
-3.2801 <s> FARFETCH'D 0.0000
-3.2801 <s> FEAROW 0.0000
-3.2801 <s> FEEBAS 0.0000
-3.2801 <s> FENNEKIN 0.0000
-3.2801 <s> FERALIGATR 0.0000
-3.2801 <s> FERROSEED 0.0000
-3.2801 <s> FERROTHORN 0.0000
-3.2801 <s> FINNEON 0.0000
-3.2801 <s> FLAAFFY 0.0000
-3.2801 <s> FLABEBE 0.0000
-3.2801 <s> FLAPPLE 0.0000
-3.2801 <s> FLAREON 0.0000
-3.2801 <s> FLETCHINDER 0.0000
-3.2801 <s> FLETCHLING 0.0000
-3.2801 <s> FLOATZEL 0.0000
-3.2801 <s> FLOETTE 0.0000
-3.2801 <s> FLORGES 0.0000
-3.2801 <s> FLYGON 0.0000
-3.2801 <s> FOMANTIS 0.0000
-3.2801 <s> FOONGUS 0.0000
-3.2801 <s> FORRETRESS 0.0000
-3.2801 <s> FRAXURE 0.0000
-3.2801 <s> FRILLISH 0.0000
-3.2801 <s> FROAKIE 0.0000
-3.2801 <s> FROGADIER 0.0000
-3.2801 <s> FROSLASS 0.0000
-3.2801 <s> FROSMOTH 0.0000
-3.2801 <s> FURFROU 0.0000
-3.2801 <s> FURRET 0.0000
-3.2801 <s> GABITE 0.0000
-3.2801 <s> GALLADE 0.0000
-3.2801 <s> GALVANTULA 0.0000
-3.2801 <s> GARBODOR 0.0000
-3.2801 <s> GARCHOMP 0.0000
-3.2801 <s> GARDEVOIR 0.0000
-3.2801 <s> GASTLY 0.0000
-3.2801 <s> GASTRODON 0.0000
-3.2801 <s> GENESECT 0.0000
-3.2801 <s> GENGAR 0.0000
-3.2801 <s> GEODUDE 0.0000
-3.2801 <s> GIBLE 0.0000
-3.2801 <s> GIGALITH 0.0000
-3.2801 <s> GIRAFARIG 0.0000
-3.2801 <s> GIRATINA 0.0000
-3.2801 <s> GLACEON 0.0000
-3.2801 <s> GLALIE 0.0000
-3.2801 <s> GLAMEOW 0.0000
-3.2801 <s> GLASTRIER 0.0000
-3.2801 <s> GLIGAR 0.0000
-3.2801 <s> GLISCOR 0.0000
-3.2801 <s> GLOOM 0.0000
-3.2801 <s> GOGOAT 0.0000
-3.2801 <s> GOLBAT 0.0000
-3.2801 <s> GOLDEEN 0.0000
-3.2801 <s> GOLDUCK 0.0000
-3.2801 <s> GOLEM 0.0000
-3.2801 <s> GOLETT 0.0000
-3.2801 <s> GOLISOPOD 0.0000
-3.2801 <s> GOLURK 0.0000
-3.2801 <s> GOODRA 0.0000
-3.2801 <s> GOOMY 0.0000
-3.2801 <s> GOREBYSS 0.0000
-3.2801 <s> GOSSIFLEUR 0.0000
-3.2801 <s> GOTHITA 0.0000
-3.2801 <s> GOTHITELLE 0.0000
-3.2801 <s> GOTHORITA 0.0000
-3.2801 <s> GOURGEIST 0.0000
-3.2801 <s> GRANBULL 0.0000
-3.2801 <s> GRAPPLOCT 0.0000
-3.2801 <s> GRAVELER 0.0000
-3.2801 <s> GREEDENT 0.0000
-3.2801 <s> GRENINJA 0.0000
-3.2801 <s> GRIMER 0.0000
-3.2801 <s> GRIMMSNARL 0.0000
-3.2801 <s> GROOKEY 0.0000
-3.2801 <s> GROTLE 0.0000
-3.2801 <s> GROUDON 0.0000
-3.2801 <s> GROVYLE 0.0000
-3.2801 <s> GROWLITHE 0.0000
-3.2801 <s> GRUBBIN 0.0000
-3.2801 <s> GRUMPIG 0.0000
-3.2801 <s> GULPIN 0.0000
-3.2801 <s> GUMSHOOS 0.0000
-3.2801 <s> GURDURR 0.0000
-3.2801 <s> GUZZLORD 0.0000
-3.2801 <s> GYARADOS 0.0000
-3.2801 <s> HAKAMO-O 0.0000
-3.2801 <s> HAPPINY 0.0000
-3.2801 <s> HARIYAMA 0.0000
-3.2801 <s> HATENNA 0.0000
-3.2801 <s> HATTERENE 0.0000
-3.2801 <s> HATTREM 0.0000
-3.2801 <s> HAUNTER 0.0000
-3.2801 <s> HAWLUCHA 0.0000
-3.2801 <s> HAXORUS 0.0000
-3.2801 <s> HEATMOR 0.0000
-3.2801 <s> HEATRAN 0.0000
-3.2801 <s> HELIOLISK 0.0000
-3.2801 <s> HELIOPTILE 0.0000
-3.2801 <s> HERACROSS 0.0000
-3.2801 <s> HERDIER 0.0000
-3.2801 <s> HIPPOPOTAS 0.0000
-3.2801 <s> HIPPOWDON 0.0000
-3.2801 <s> HITMONCHAN 0.0000
-3.2801 <s> HITMONLEE 0.0000
-3.2801 <s> HITMONTOP 0.0000
-3.2801 <s> HO-OH 0.0000
-3.2801 <s> HONCHKROW 0.0000
-3.2801 <s> HONEDGE 0.0000
-3.2801 <s> HOOPA 0.0000
-3.2801 <s> HOOTHOOT 0.0000
-3.2801 <s> HOPPIP 0.0000
-3.2801 <s> HORSEA 0.0000
-3.2801 <s> HOUNDOOM 0.0000
-3.2801 <s> HOUNDOUR 0.0000
-3.2801 <s> HUNTAIL 0.0000
-3.2801 <s> HYDREIGON 0.0000
-3.2801 <s> HYPNO 0.0000
-3.2801 <s> IGGLYBUFF 0.0000
-3.2801 <s> ILLUMISE 0.0000
-3.2801 <s> IMPIDIMP 0.0000
-3.2801 <s> INCINEROAR 0.0000
-2.9791 <s> INDEEDEE 0.0000
-3.2801 <s> INFERNAPE 0.0000
-3.2801 <s> INKAY 0.0000
-3.2801 <s> INTELEON 0.0000
-3.2801 <s> IVYSAUR 0.0000
-3.2801 <s> JANGMO-O 0.0000
-3.2801 <s> JELLICENT 0.0000
-3.2801 <s> JIGGLYPUFF 0.0000
-3.2801 <s> JIRACHI 0.0000
-3.2801 <s> JOLTEON 0.0000
-3.2801 <s> JOLTIK 0.0000
-3.2801 <s> JUMPLUFF 0.0000
-3.2801 <s> JYNX 0.0000
-3.2801 <s> KABUTO 0.0000
-3.2801 <s> KABUTOPS 0.0000
-3.2801 <s> KADABRA 0.0000
-3.2801 <s> KAKUNA 0.0000
-3.2801 <s> KANGASKHAN 0.0000
-3.2801 <s> KARRABLAST 0.0000
-3.2801 <s> KARTANA 0.0000
-3.2801 <s> KECLEON 0.0000
-3.2801 <s> KELDEO 0.0000
-3.2801 <s> KINGDRA 0.0000
-3.2801 <s> KINGLER 0.0000
-3.2801 <s> KIRLIA 0.0000
-3.2801 <s> KLANG 0.0000
-3.2801 <s> KLEFKI 0.0000
-3.2801 <s> KLINK 0.0000
-3.2801 <s> KLINKLANG 0.0000
-3.2801 <s> KOFFING 0.0000
-3.2801 <s> KOMALA 0.0000
-3.2801 <s> KOMMO-O 0.0000
-3.2801 <s> KRABBY 0.0000
-3.2801 <s> KRICKETOT 0.0000
-3.2801 <s> KRICKETUNE 0.0000
-3.2801 <s> KROKOROK 0.0000
-3.2801 <s> KROOKODILE 0.0000
-3.2801 <s> KUBFU 0.0000
-3.2801 <s> KYOGRE 0.0000
-3.2801 <s> KYUREM 0.0000
-3.2801 <s> LAIRON 0.0000
-3.2801 <s> LAMPENT 0.0000
-3.2801 <s> LANDORUS 0.0000
-3.2801 <s> LANTURN 0.0000
-3.2801 <s> LAPRAS 0.0000
-3.2801 <s> LARVESTA 0.0000
-3.2801 <s> LARVITAR 0.0000
-3.2801 <s> LATIAS 0.0000
-3.2801 <s> LATIOS 0.0000
-3.2801 <s> LEAFEON 0.0000
-3.2801 <s> LEAVANNY 0.0000
-3.2801 <s> LEDIAN 0.0000
-3.2801 <s> LEDYBA 0.0000
-3.2801 <s> LICKILICKY 0.0000
-3.2801 <s> LICKITUNG 0.0000
-3.2801 <s> LIEPARD 0.0000
-3.2801 <s> LILEEP 0.0000
-3.2801 <s> LILLIGANT 0.0000
-3.2801 <s> LILLIPUP 0.0000
-3.2801 <s> LINOONE 0.0000
-3.2801 <s> LITLEO 0.0000
-3.2801 <s> LITTEN 0.0000
-3.2801 <s> LITWICK 0.0000
-3.2801 <s> LOMBRE 0.0000
-3.2801 <s> LOPUNNY 0.0000
-3.2801 <s> LOTAD 0.0000
-3.2801 <s> LOUDRED 0.0000
-3.2801 <s> LUCARIO 0.0000
-3.2801 <s> LUDICOLO 0.0000
-3.2801 <s> LUGIA 0.0000
-3.2801 <s> LUMINEON 0.0000
-3.2801 <s> LUNALA 0.0000
-3.2801 <s> LUNATONE 0.0000
-3.2801 <s> LURANTIS 0.0000
-3.2801 <s> LUVDISC 0.0000
-3.2801 <s> LUXIO 0.0000
-3.2801 <s> LUXRAY 0.0000
-3.2801 <s> LYCANROC 0.0000
-3.2801 <s> MACHAMP 0.0000
-3.2801 <s> MACHOKE 0.0000
-3.2801 <s> MACHOP 0.0000
-3.2801 <s> MAGBY 0.0000
-3.2801 <s> MAGCARGO 0.0000
-3.2801 <s> MAGEARNA 0.0000
-3.2801 <s> MAGIKARP 0.0000
-3.2801 <s> MAGMAR 0.0000
-3.2801 <s> MAGMORTAR 0.0000
-3.2801 <s> MAGNEMITE 0.0000
-3.2801 <s> MAGNETON 0.0000
-3.2801 <s> MAGNEZONE 0.0000
-3.2801 <s> MAKUHITA 0.0000
-3.2801 <s> MALAMAR 0.0000
-3.2801 <s> MAMOSWINE 0.0000
-3.2801 <s> MANAPHY 0.0000
-3.2801 <s> MANDIBUZZ 0.0000
-3.2801 <s> MANECTRIC 0.0000
-3.2801 <s> MANKEY 0.0000
-3.2801 <s> MANTINE 0.0000
-3.2801 <s> MANTYKE 0.0000
-3.2801 <s> MARACTUS 0.0000
-3.2801 <s> MAREANIE 0.0000
-3.2801 <s> MAREEP 0.0000
-3.2801 <s> MARILL 0.0000
-3.2801 <s> MAROWAK 0.0000
-3.2801 <s> MARSHADOW 0.0000
-3.2801 <s> MARSHTOMP 0.0000
-3.2801 <s> MASQUERAIN 0.0000
-3.2801 <s> MAWILE 0.0000
-3.2801 <s> MEDICHAM 0.0000
-3.2801 <s> MEDITITE 0.0000
-1.5989 <s> MEGA 0.0000
-3.2801 <s> MEGANIUM 0.0000
-3.2801 <s> MELMETAL 0.0000
-3.2801 <s> MELOETTA 0.0000
-3.2801 <s> MELTAN 0.0000
-2.9791 <s> MEOWSTIC 0.0000
-3.2801 <s> MEOWTH 0.0000
-3.2801 <s> MESPRIT 0.0000
-3.2801 <s> METAGROSS 0.0000
-3.2801 <s> METANG 0.0000
-3.2801 <s> METAPOD 0.0000
-3.2801 <s> MEW 0.0000
-3.2801 <s> MEWTWO -0.2218
-3.2801 <s> MIENFOO 0.0000
-3.2801 <s> MIENSHAO 0.0000
-3.2801 <s> MIGHTYENA 0.0000
-3.2801 <s> MILCERY 0.0000
-3.2801 <s> MILOTIC 0.0000
-3.2801 <s> MILTANK 0.0000
-3.2801 <s> MIME -0.1761
-3.2801 <s> MIMIKYU 0.0000
-3.2801 <s> MINCCINO 0.0000
-3.2801 <s> MINIOR 0.0000
-3.2801 <s> MINUN 0.0000
-3.2801 <s> MISDREAVUS 0.0000
-3.2801 <s> MISMAGIUS 0.0000
-3.2801 <s> MOLTRES 0.0000
-3.2801 <s> MONFERNO 0.0000
-3.2801 <s> MORELULL 0.0000
-3.2801 <s> MORGREM 0.0000
-3.2801 <s> MORPEKO 0.0000
-3.2801 <s> MOTHIM 0.0000
-2.9791 <s> MR. 0.0000
-3.2801 <s> MUDBRAY 0.0000
-3.2801 <s> MUDKIP 0.0000
-3.2801 <s> MUDSDALE 0.0000
-3.2801 <s> MUK 0.0000
-3.2801 <s> MUNCHLAX 0.0000
-3.2801 <s> MUNNA 0.0000
-3.2801 <s> MURKROW 0.0000
-3.2801 <s> MUSHARNA 0.0000
-3.2801 <s> NAGANADEL 0.0000
-3.2801 <s> NATU 0.0000
-3.2801 <s> NECROZMA 0.0000
-3.2801 <s> NICKIT 0.0000
-3.2801 <s> NIDOKING 0.0000
-3.2801 <s> NIDOQUEEN 0.0000
-2.9791 <s> NIDORAN 0.0000
-3.2801 <s> NIDORINA 0.0000
-3.2801 <s> NIDORINO 0.0000
-3.2801 <s> NIHILEGO 0.0000
-3.2801 <s> NINCADA 0.0000
-3.2801 <s> NINETALES 0.0000
-3.2801 <s> NINJASK 0.0000
-3.2801 <s> NOCTOWL 0.0000
-3.2801 <s> NOIBAT 0.0000
-3.2801 <s> NOIVERN 0.0000
-3.2801 <s> NOSEPASS 0.0000
-3.2801 <s> NUMEL 0.0000
-3.2801 <s> NUZLEAF 0.0000
-3.2801 <s> OBSTAGOON 0.0000
-3.2801 <s> OCTILLERY 0.0000
-3.2801 <s> ODDISH 0.0000
-3.2801 <s> OMANYTE 0.0000
-3.2801 <s> OMASTAR 0.0000
-3.2801 <s> ONIX 0.0000
-3.2801 <s> ORANGURU 0.0000
-3.2801 <s> ORBEETLE 0.0000
-3.2801 <s> ORICORIO 0.0000
-3.2801 <s> OSHAWOTT 0.0000
-3.2801 <s> PACHIRISU 0.0000
-3.2801 <s> PALKIA 0.0000
-3.2801 <s> PALOSSAND 0.0000
-3.2801 <s> PALPITOAD 0.0000
-3.2801 <s> PANCHAM 0.0000
-3.2801 <s> PANGORO 0.0000
-3.2801 <s> PANPOUR 0.0000
-3.2801 <s> PANSAGE 0.0000
-3.2801 <s> PANSEAR 0.0000
-3.2801 <s> PARAS 0.0000
-3.2801 <s> PARASECT 0.0000
-3.2801 <s> PASSIMIAN 0.0000
-3.2801 <s> PATRAT 0.0000
-3.2801 <s> PAWNIARD 0.0000
-3.2801 <s> PELIPPER 0.0000
-3.2801 <s> PERRSERKER 0.0000
-3.2801 <s> PERSIAN 0.0000
-3.2801 <s> PETILIL 0.0000
-3.2801 <s> PHANPY 0.0000
-3.2801 <s> PHANTUMP 0.0000
-3.2801 <s> PHEROMOSA 0.0000
-3.2801 <s> PHIONE 0.0000
-3.2801 <s> PICHU 0.0000
-3.2801 <s> PIDGEOT 0.0000
-3.2801 <s> PIDGEOTTO 0.0000
-3.2801 <s> PIDGEY 0.0000
-3.2801 <s> PIDOVE 0.0000
-3.2801 <s> PIGNITE 0.0000
-3.2801 <s> PIKACHU 0.0000
-3.2801 <s> PIKIPEK 0.0000
-3.2801 <s> PILOSWINE 0.0000
-3.2801 <s> PINCURCHIN 0.0000
-3.2801 <s> PINECO 0.0000
-3.2801 <s> PINSIR 0.0000
-3.2801 <s> PIPLUP 0.0000
-3.2801 <s> PLUSLE 0.0000
-3.2801 <s> POIPOLE 0.0000
-3.2801 <s> POLITOED 0.0000
-3.2801 <s> POLIWAG 0.0000
-3.2801 <s> POLIWHIRL 0.0000
-3.2801 <s> POLIWRATH 0.0000
-3.2801 <s> POLTEAGEIST 0.0000
-3.2801 <s> PONYTA 0.0000
-3.2801 <s> POOCHYENA 0.0000
-3.2801 <s> POPPLIO 0.0000
-3.2801 <s> PORYGON 0.0000
-3.2801 <s> PORYGON-Z 0.0000
-3.2801 <s> PORYGON2 0.0000
-2.9791 <s> PRIMAL 0.0000
-3.2801 <s> PRIMARINA 0.0000
-3.2801 <s> PRIMEAPE 0.0000
-3.2801 <s> PRINPLUP 0.0000
-3.2801 <s> PROBOPASS 0.0000
-3.2801 <s> PSYDUCK 0.0000
-3.2801 <s> PUMPKABOO 0.0000
-3.2801 <s> PUPITAR 0.0000
-3.2801 <s> PURRLOIN 0.0000
-3.2801 <s> PURUGLY 0.0000
-3.2801 <s> PYROAR 0.0000
-3.2801 <s> PYUKUMUKU 0.0000
-3.2801 <s> QUAGSIRE 0.0000
-3.2801 <s> QUILAVA 0.0000
-3.2801 <s> QUILLADIN 0.0000
-3.2801 <s> QWILFISH 0.0000
-3.2801 <s> RABOOT 0.0000
-3.2801 <s> RAICHU 0.0000
-3.2801 <s> RAIKOU 0.0000
-3.2801 <s> RALTS 0.0000
-3.2801 <s> RAMPARDOS 0.0000
-3.2801 <s> RAPIDASH 0.0000
-3.2801 <s> RATICATE 0.0000
-3.2801 <s> RATTATA 0.0000
-3.2801 <s> RAYQUAZA 0.0000
-3.2801 <s> REGICE 0.0000
-3.2801 <s> REGIDRAGO 0.0000
-3.2801 <s> REGIELEKI 0.0000
-3.2801 <s> REGIGIGAS 0.0000
-3.2801 <s> REGIROCK 0.0000
-3.2801 <s> REGISTEEL 0.0000
-3.2801 <s> RELICANTH 0.0000
-3.2801 <s> REMORAID 0.0000
-3.2801 <s> RESHIRAM 0.0000
-3.2801 <s> REUNICLUS 0.0000
-3.2801 <s> RHYDON 0.0000
-3.2801 <s> RHYHORN 0.0000
-3.2801 <s> RHYPERIOR 0.0000
-3.2801 <s> RIBOMBEE 0.0000
-3.2801 <s> RILLABOOM 0.0000
-3.2801 <s> RIOLU 0.0000
-3.2801 <s> ROCKRUFF 0.0000
-3.2801 <s> ROGGENROLA 0.0000
-3.2801 <s> ROLYCOLY 0.0000
-3.2801 <s> ROOKIDEE 0.0000
-3.2801 <s> ROSELIA 0.0000
-3.2801 <s> ROSERADE 0.0000
-3.2801 <s> ROTOM 0.0000
-3.2801 <s> ROWLET 0.0000
-3.2801 <s> RUFFLET 0.0000
-3.2801 <s> RUNERIGUS 0.0000
-3.2801 <s> SABLEYE 0.0000
-3.2801 <s> SALAMENCE 0.0000
-3.2801 <s> SALANDIT 0.0000
-3.2801 <s> SALAZZLE 0.0000
-3.2801 <s> SAMUROTT 0.0000
-3.2801 <s> SANDACONDA 0.0000
-3.2801 <s> SANDILE 0.0000
-3.2801 <s> SANDSHREW 0.0000
-3.2801 <s> SANDSLASH 0.0000
-3.2801 <s> SANDYGAST 0.0000
-3.2801 <s> SAWK 0.0000
-3.2801 <s> SAWSBUCK 0.0000
-3.2801 <s> SCATTERBUG 0.0000
-3.2801 <s> SCEPTILE 0.0000
-3.2801 <s> SCIZOR 0.0000
-3.2801 <s> SCOLIPEDE 0.0000
-3.2801 <s> SCORBUNNY 0.0000
-3.2801 <s> SCRAFTY 0.0000
-3.2801 <s> SCRAGGY 0.0000
-3.2801 <s> SCYTHER 0.0000
-3.2801 <s> SEADRA 0.0000
-3.2801 <s> SEAKING 0.0000
-3.2801 <s> SEALEO 0.0000
-3.2801 <s> SEEDOT 0.0000
-3.2801 <s> SEEL 0.0000
-3.2801 <s> SEISMITOAD 0.0000
-3.2801 <s> SENTRET 0.0000
-3.2801 <s> SERPERIOR 0.0000
-3.2801 <s> SERVINE 0.0000
-3.2801 <s> SEVIPER 0.0000
-3.2801 <s> SEWADDLE 0.0000
-3.2801 <s> SHARPEDO 0.0000
-3.2801 <s> SHAYMIN 0.0000
-3.2801 <s> SHEDINJA 0.0000
-3.2801 <s> SHELGON 0.0000
-3.2801 <s> SHELLDER 0.0000
-3.2801 <s> SHELLOS 0.0000
-3.2801 <s> SHELMET 0.0000
-3.2801 <s> SHIELDON 0.0000
-3.2801 <s> SHIFTRY 0.0000
-3.2801 <s> SHIINOTIC 0.0000
-3.2801 <s> SHINX 0.0000
-3.2801 <s> SHROOMISH 0.0000
-3.2801 <s> SHUCKLE 0.0000
-3.2801 <s> SHUPPET 0.0000
-3.2801 <s> SIGILYPH 0.0000
-3.2801 <s> SILCOON 0.0000
-3.2801 <s> SILICOBRA 0.0000
-3.2801 <s> SILVALLY 0.0000
-3.2801 <s> SIMIPOUR 0.0000
-3.2801 <s> SIMISAGE 0.0000
-3.2801 <s> SIMISEAR 0.0000
-3.2801 <s> SINISTEA 0.0000
-3.2801 <s> SIRFETCH'D 0.0000
-3.2801 <s> SIZZLIPEDE 0.0000
-3.2801 <s> SKARMORY 0.0000
-3.2801 <s> SKIDDO 0.0000
-3.2801 <s> SKIPLOOM 0.0000
-3.2801 <s> SKITTY 0.0000
-3.2801 <s> SKORUPI 0.0000
-3.2801 <s> SKRELP 0.0000
-3.2801 <s> SKUNTANK 0.0000
-3.2801 <s> SKWOVET 0.0000
-3.2801 <s> SLAKING 0.0000
-3.2801 <s> SLAKOTH 0.0000
-3.2801 <s> SLIGGOO 0.0000
-3.2801 <s> SLOWBRO 0.0000
-3.2801 <s> SLOWKING 0.0000
-3.2801 <s> SLOWPOKE 0.0000
-3.2801 <s> SLUGMA 0.0000
-3.2801 <s> SLURPUFF 0.0000
-3.2801 <s> SMEARGLE 0.0000
-3.2801 <s> SMOOCHUM 0.0000
-3.2801 <s> SNEASEL 0.0000
-3.2801 <s> SNIVY 0.0000
-3.2801 <s> SNOM 0.0000
-3.2801 <s> SNORLAX 0.0000
-3.2801 <s> SNORUNT 0.0000
-3.2801 <s> SNOVER 0.0000
-3.2801 <s> SNUBBULL 0.0000
-3.2801 <s> SOBBLE 0.0000
-3.2801 <s> SOLGALEO 0.0000
-3.2801 <s> SOLOSIS 0.0000
-3.2801 <s> SOLROCK 0.0000
-3.2801 <s> SPEAROW 0.0000
-3.2801 <s> SPECTRIER 0.0000
-3.2801 <s> SPEWPA 0.0000
-3.2801 <s> SPHEAL 0.0000
-3.2801 <s> SPINARAK 0.0000
-3.2801 <s> SPINDA 0.0000
-3.2801 <s> SPIRITOMB 0.0000
-3.2801 <s> SPOINK 0.0000
-3.2801 <s> SPRITZEE 0.0000
-3.2801 <s> SQUIRTLE 0.0000
-3.2801 <s> STAKATAKA 0.0000
-3.2801 <s> STANTLER 0.0000
-3.2801 <s> STARAPTOR 0.0000
-3.2801 <s> STARAVIA 0.0000
-3.2801 <s> STARLY 0.0000
-3.2801 <s> STARMIE 0.0000
-3.2801 <s> STARYU 0.0000
-3.2801 <s> STEELIX 0.0000
-3.2801 <s> STEENEE 0.0000
-3.2801 <s> STONJOURNER 0.0000
-3.2801 <s> STOUTLAND 0.0000
-3.2801 <s> STUFFUL 0.0000
-3.2801 <s> STUNFISK 0.0000
-3.2801 <s> STUNKY 0.0000
-3.2801 <s> SUDOWOODO 0.0000
-3.2801 <s> SUICUNE 0.0000
-3.2801 <s> SUNFLORA 0.0000
-3.2801 <s> SUNKERN 0.0000
-3.2801 <s> SURSKIT 0.0000
-3.2801 <s> SWABLU 0.0000
-3.2801 <s> SWADLOON 0.0000
-3.2801 <s> SWALOT 0.0000
-3.2801 <s> SWAMPERT 0.0000
-3.2801 <s> SWANNA 0.0000
-3.2801 <s> SWELLOW 0.0000
-3.2801 <s> SWINUB 0.0000
-3.2801 <s> SWIRLIX 0.0000
-3.2801 <s> SWOOBAT 0.0000
-3.2801 <s> SYLVEON 0.0000
-3.2801 <s> TAILLOW 0.0000
-3.2801 <s> TALONFLAME 0.0000
-3.2801 <s> TANGELA 0.0000
-3.2801 <s> TANGROWTH 0.0000
-2.6781 <s> TAPU 0.0000
-3.2801 <s> TAUROS 0.0000
-3.2801 <s> TEDDIURSA 0.0000
-3.2801 <s> TENTACOOL 0.0000
-3.2801 <s> TENTACRUEL 0.0000
-3.2801 <s> TEPIG 0.0000
-3.2801 <s> TERRAKION 0.0000
-3.2801 <s> THIEVUL 0.0000
-3.2801 <s> THROH 0.0000
-3.2801 <s> THUNDURUS 0.0000
-3.2801 <s> THWACKEY 0.0000
-3.2801 <s> TIMBURR 0.0000
-3.2801 <s> TIRTOUGA 0.0000
-3.2801 <s> TOGEDEMARU 0.0000
-3.2801 <s> TOGEKISS 0.0000
-3.2801 <s> TOGEPI 0.0000
-3.2801 <s> TOGETIC 0.0000
-3.2801 <s> TORCHIC 0.0000
-3.2801 <s> TORKOAL 0.0000
-3.2801 <s> TORNADUS 0.0000
-3.2801 <s> TORRACAT 0.0000
-3.2801 <s> TORTERRA 0.0000
-3.2801 <s> TOTODILE 0.0000
-3.2801 <s> TOUCANNON 0.0000
-3.2801 <s> TOXAPEX 0.0000
-3.2801 <s> TOXEL 0.0000
-3.2801 <s> TOXICROAK 0.0000
-3.2801 <s> TOXTRICITY 0.0000
-3.2801 <s> TRANQUILL 0.0000
-3.2801 <s> TRAPINCH 0.0000
-3.2801 <s> TREECKO 0.0000
-3.2801 <s> TREVENANT 0.0000
-3.2801 <s> TROPIUS 0.0000
-3.2801 <s> TRUBBISH 0.0000
-3.2801 <s> TRUMBEAK 0.0000
-3.2801 <s> TSAREENA 0.0000
-3.2801 <s> TURTONATOR 0.0000
-3.2801 <s> TURTWIG 0.0000
-3.2801 <s> TYMPOLE 0.0000
-3.2801 <s> TYNAMO 0.0000
-3.2801 <s> TYPE: 0.0000
-3.2801 <s> TYPHLOSION 0.0000
-3.2801 <s> TYRANITAR 0.0000
-3.2801 <s> TYRANTRUM 0.0000
-3.2801 <s> TYROGUE 0.0000
-3.2801 <s> TYRUNT 0.0000
-3.2801 <s> UMBREON 0.0000
-3.2801 <s> UNFEZANT 0.0000
-3.2801 <s> UNOWN 0.0000
-3.2801 <s> URSARING 0.0000
-3.2801 <s> URSHIFU 0.0000
-3.2801 <s> UXIE 0.0000
-3.2801 <s> VANILLISH 0.0000
-3.2801 <s> VANILLITE 0.0000
-3.2801 <s> VANILLUXE 0.0000
-3.2801 <s> VAPOREON 0.0000
-3.2801 <s> VENIPEDE 0.0000
-3.2801 <s> VENOMOTH 0.0000
-3.2801 <s> VENONAT 0.0000
-3.2801 <s> VENUSAUR 0.0000
-3.2801 <s> VESPIQUEN 0.0000
-3.2801 <s> VIBRAVA 0.0000
-3.2801 <s> VICTINI 0.0000
-3.2801 <s> VICTREEBEL 0.0000
-3.2801 <s> VIGOROTH 0.0000
-3.2801 <s> VIKAVOLT 0.0000
-3.2801 <s> VILEPLUME 0.0000
-3.2801 <s> VIRIZION 0.0000
-3.2801 <s> VIVILLON 0.0000
-3.2801 <s> VOLBEAT 0.0000
-3.2801 <s> VOLCANION 0.0000
-3.2801 <s> VOLCARONA 0.0000
-3.2801 <s> VOLTORB 0.0000
-3.2801 <s> VULLABY 0.0000
-3.2801 <s> VULPIX 0.0000
-3.2801 <s> WAILMER 0.0000
-3.2801 <s> WAILORD 0.0000
-3.2801 <s> WALREIN 0.0000
-3.2801 <s> WARTORTLE 0.0000
-3.2801 <s> WATCHOG 0.0000
-3.2801 <s> WEAVILE 0.0000
-3.2801 <s> WEEDLE 0.0000
-3.2801 <s> WEEPINBELL 0.0000
-3.2801 <s> WEEZING 0.0000
-3.2801 <s> WHIMSICOTT 0.0000
-3.2801 <s> WHIRLIPEDE 0.0000
-3.2801 <s> WHISCASH 0.0000
-3.2801 <s> WHISMUR 0.0000
-3.2801 <s> WIGGLYTUFF 0.0000
-3.2801 <s> WIMPOD 0.0000
-3.2801 <s> WINGULL 0.0000
-3.2801 <s> WISHIWASHI 0.0000
-3.2801 <s> WOBBUFFET 0.0000
-3.2801 <s> WOOBAT 0.0000
-3.2801 <s> WOOLOO 0.0000
-3.2801 <s> WOOPER 0.0000
-3.2801 <s> WORMADAM 0.0000
-3.2801 <s> WURMPLE 0.0000
-3.2801 <s> WYNAUT 0.0000
-3.2801 <s> XATU 0.0000
-3.2801 <s> XERNEAS 0.0000
-3.2801 <s> XURKITREE 0.0000
-3.2801 <s> YAMASK 0.0000
-3.2801 <s> YAMPER 0.0000
-3.2801 <s> YANMA 0.0000
-3.2801 <s> YANMEGA 0.0000
-3.2801 <s> YUNGOOS 0.0000
-3.2801 <s> YVELTAL 0.0000
-3.2801 <s> ZACIAN 0.0000
-3.2801 <s> ZAMAZANTA 0.0000
-3.2801 <s> ZAMAZENTA 0.0000
-3.2801 <s> ZANGOOSE 0.0000
-3.2801 <s> ZAPDOS 0.0000
-3.2801 <s> ZARUDE 0.0000
-3.2801 <s> ZEBSTRIKA 0.0000
-3.2801 <s> ZEKROM 0.0000
-3.2801 <s> ZERAORA 0.0000
-3.2801 <s> ZIGZAGOON 0.0000
-3.2801 <s> ZOROARK 0.0000
-3.2801 <s> ZORUA 0.0000
-3.2801 <s> ZUBAT 0.0000
-3.2801 <s> ZWEILOUS 0.0000
-3.2801 <s> ZYGARDE 0.0000
-0.3010 ABOMASNOW </s> -0.3010
-0.3010 ABRA </s> -0.3010
-0.3010 ABSOL </s> -0.3010
-0.3010 ACCELGOR </s> -0.3010
-0.3010 AEGISLASH </s> -0.3010
-0.3010 AERODACTYL </s> -0.3010
-0.3010 AGGRON </s> -0.3010
-0.3010 AIPOM </s> -0.3010
-0.3010 ALAKAZAM </s> -0.3010
-0.3010 ALCREMIE </s> -0.3010
-0.3010 ALOMOMOLA </s> -0.3010
-0.3010 ALTARIA </s> -0.3010
-0.3010 AMAURA </s> -0.3010
-0.3010 AMBIPOM </s> -0.3010
-0.3010 AMOONGUSS </s> -0.3010
-0.3010 AMPHAROS </s> -0.3010
-0.3010 ANORITH </s> -0.3010
-0.3010 APPLETUN </s> -0.3010
-0.3010 APPLIN </s> -0.3010
-0.3010 ARAQUANID </s> -0.3010
-0.3010 ARBOK </s> -0.3010
-0.3010 ARCANINE </s> -0.3010
-0.3010 ARCEUS </s> -0.3010
-0.3010 ARCHEN </s> -0.3010
-0.3010 ARCHEOPS </s> -0.3010
-0.3010 ARCTOVISH </s> -0.3010
-0.3010 ARCTOZOLT </s> -0.3010
-0.3010 ARIADOS </s> -0.3010
-0.3010 ARMALDO </s> -0.3010
-0.3010 AROMATISSE </s> -0.3010
-0.3010 ARON </s> -0.3010
-0.3010 ARROKUDA </s> -0.3010
-0.3010 ARTICUNO </s> -0.3010
-0.3010 AUDINO </s> -0.3010
-0.3010 AURORUS </s> -0.3010
-0.3010 AVALUGG </s> -0.3010
-0.3010 AXEW </s> -0.3010
-0.3010 AZELF </s> -0.3010
-0.3010 AZUMARILL </s> -0.3010
-0.3010 AZURILL </s> -0.3010
-0.3010 BAGON </s> -0.3010
-0.3010 BALTOY </s> -0.3010
-0.3010 BANETTE </s> -0.3010
-0.3010 BARBARACLE </s> -0.3010
-0.3010 BARBOACH </s> -0.3010
-0.3010 BARRASKEWDA </s> -0.3010
-0.3010 BASCULIN </s> -0.3010
-0.3010 BASTIODON </s> -0.3010
-0.3010 BAYLEEF </s> -0.3010
-0.3010 BEARTIC </s> -0.3010
-0.3010 BEAUTIFLY </s> -0.3010
-0.3010 BEEDRILL </s> -0.3010
-0.3010 BEHEEYEM </s> -0.3010
-0.3010 BELDUM </s> -0.3010
-0.3010 BELLOSSOM </s> -0.3010
-0.3010 BELLSPROUT </s> -0.3010
-0.3010 BERGMITE </s> -0.3010
-0.3010 BEWEAR </s> -0.3010
-0.3010 BIBAREL </s> -0.3010
-0.3010 BIDOOF </s> -0.3010
-0.3010 BINACLE </s> -0.3010
-0.3010 BISHARP </s> -0.3010
-0.3010 BLACEPHALON </s> -0.3010
-0.3010 BLASTOISE </s> -0.3010
-0.3010 BLAZIKEN </s> -0.3010
-0.3010 BLIPBUG </s> -0.3010
-0.3010 BLISSEY </s> -0.3010
-0.3010 BLITZLE </s> -0.3010
-0.3010 BOLDORE </s> -0.3010
-0.3010 BOLTUND </s> -0.3010
-0.3010 BONSLY </s> -0.3010
-0.3010 BOUFFALANT </s> -0.3010
-0.3010 BOUNSWEET </s> -0.3010
-0.3010 BRAIXEN </s> -0.3010
-0.3010 BRAVIARY </s> -0.3010
-0.3010 BRELOOM </s> -0.3010
-0.3010 BRIONNE </s> -0.3010
-0.3010 BRONZONG </s> -0.3010
-0.3010 BRONZOR </s> -0.3010
-0.3010 BRUXISH </s> -0.3010
-0.3010 BUDEW </s> -0.3010
-0.3010 BUIZEL </s> -0.3010
-0.3010 BULBASAUR </s> -0.3010
-0.3010 BULU </s> -0.3010
-0.3010 BUNEARY </s> -0.3010
-0.3010 BUNNELBY </s> -0.3010
-0.3010 BURMY </s> -0.3010
-0.3010 BUTTERFREE </s> -0.3010
-0.3010 BUZZWOLE </s> -0.3010
-0.3010 CACNEA </s> -0.3010
-0.3010 CACTURNE </s> -0.3010
-0.7782 CALYREX GHOST 0.0000
-0.7782 CALYREX GRASS 0.0000
-0.7782 CALYREX ICE 0.0000
-0.3010 CAMERUPT </s> -0.3010
-0.3010 CARBINK </s> -0.3010
-0.3010 CARKOL </s> -0.3010
-0.3010 CARNIVINE </s> -0.3010
-0.3010 CARRACOSTA </s> -0.3010
-0.3010 CARVANHA </s> -0.3010
-0.3010 CASCOON </s> -0.3010
-0.3010 CASTFORM </s> -0.3010
-0.3010 CATERPIE </s> -0.3010
-0.3010 CELEBI </s> -0.3010
-0.3010 CELESTEELA </s> -0.3010
-0.3010 CENTISKORCH </s> -0.3010
-0.3010 CHANDELURE </s> -0.3010
-0.3010 CHANSEY </s> -0.3010
-0.7782 CHARIZARD </s> -0.3010
-0.7782 CHARIZARD X 0.0000
-0.7782 CHARIZARD Y 0.0000
-0.3010 CHARJABUG </s> -0.3010
-0.3010 CHARMANDER </s> -0.3010
-0.3010 CHARMELEON </s> -0.3010
-0.3010 CHATOT </s> -0.3010
-0.3010 CHERRIM </s> -0.3010
-0.3010 CHERUBI </s> -0.3010
-0.3010 CHESNAUGHT </s> -0.3010
-0.3010 CHESPIN </s> -0.3010
-0.3010 CHEWTLE </s> -0.3010
-0.3010 CHIKORITA </s> -0.3010
-0.3010 CHIMCHAR </s> -0.3010
-0.3010 CHIMECHO </s> -0.3010
-0.3010 CHINCHOU </s> -0.3010
-0.3010 CHINGLING </s> -0.3010
-0.3010 CINCCINO </s> -0.3010
-0.3010 CINDERACE </s> -0.3010
-0.3010 CLAMPERL </s> -0.3010
-0.3010 CLAUNCHER </s> -0.3010
-0.3010 CLAWITZER </s> -0.3010
-0.3010 CLAYDOL </s> -0.3010
-0.3010 CLEFABLE </s> -0.3010
-0.3010 CLEFAIRY </s> -0.3010
-0.3010 CLEFFA </s> -0.3010
-0.3010 CLOBBOPUS </s> -0.3010
-0.3010 CLOYSTER </s> -0.3010
-0.3010 COALOSSAL </s> -0.3010
-0.3010 COBALION </s> -0.3010
-0.3010 COFAGRIGUS </s> -0.3010
-0.3010 COMBEE </s> -0.3010
-0.3010 COMBUSKEN </s> -0.3010
-0.3010 COMFEY </s> -0.3010
-0.3010 CONKELDURR </s> -0.3010
-0.3010 COPPERAJAH </s> -0.3010
-0.3010 CORPHISH </s> -0.3010
-0.3010 CORSOLA </s> -0.3010
-0.3010 CORVIKNIGHT </s> -0.3010
-0.3010 COSMOEM </s> -0.3010
-0.3010 COSMOG </s> -0.3010
-0.3010 COTTONEE </s> -0.3010
-0.3010 CRABOMINABLE </s> -0.3010
-0.3010 CRABRAWLER </s> -0.3010
-0.3010 CRADILY </s> -0.3010
-0.3010 CRAMORANT </s> -0.3010
-0.3010 CRANIDOS </s> -0.3010
-0.3010 CRAWDAUNT </s> -0.3010
-0.3010 CRESSELIA </s> -0.3010
-0.3010 CROAGUNK </s> -0.3010
-0.3010 CROBAT </s> -0.3010
-0.3010 CROCONAW </s> -0.3010
-0.3010 CROVISQUIRE </s> -0.3010
-0.3010 CRUSTLE </s> -0.3010
-0.3010 CRYOGONAL </s> -0.3010
-0.3010 CUBCHOO </s> -0.3010
-0.3010 CUBONE </s> -0.3010
-0.3010 CUFANT </s> -0.3010
-0.3010 CURSOLA </s> -0.3010
-0.3010 CUTIEFLY </s> -0.3010
-0.3010 CYNDAQUIL </s> -0.3010
-0.3010 DARKRAI </s> -0.3010
-0.3010 DARMANITAN </s> -0.3010
-0.3010 DARTRIX </s> -0.3010
-0.3010 DARUMAKA </s> -0.3010
-0.3010 DECIDUEYE </s> -0.3010
-0.3010 DEDENNE </s> -0.3010
-0.3010 DEERLING </s> -0.3010
-0.3010 DEINO </s> -0.3010
-0.3010 DELCATTY </s> -0.3010
-0.3010 DELIBIRD </s> -0.3010
-0.3010 DELPHOX </s> -0.3010
-0.3010 DEOXYS </s> -0.3010
-0.3010 DEWGONG </s> -0.3010
-0.3010 DEWOTT </s> -0.3010
-0.3010 DEWPIDER </s> -0.3010
-0.3010 DHELMISE </s> -0.3010
-0.3010 DIALGA </s> -0.3010
-0.3010 DIANCIE </s> -0.3010
-0.3010 DIGGERSBY </s> -0.3010
-0.3010 DIGLETT </s> -0.3010
-0.3010 DITTO </s> -0.3010
-0.3010 DODRIO </s> -0.3010
-0.3010 DODUO </s> -0.3010
-0.3010 DONPHAN </s> -0.3010
-0.3010 DOTTLER </s> -0.3010
-0.3010 DOUBLADE </s> -0.3010
-0.3010 DRACOVISH </s> -0.3010
-0.3010 DRACOZOLT </s> -0.3010
-0.3010 DRAGALGE </s> -0.3010
-0.3010 DRAGAPULT </s> -0.3010
-0.3010 DRAGONAIR </s> -0.3010
-0.3010 DRAGONITE </s> -0.3010
-0.3010 DRAKLOAK </s> -0.3010
-0.3010 DRAMPA </s> -0.3010
-0.3010 DRAPION </s> -0.3010
-0.3010 DRATINI </s> -0.3010
-0.3010 DREDNAW </s> -0.3010
-0.3010 DREEPY </s> -0.3010
-0.3010 DRIFBLIM </s> -0.3010
-0.3010 DRIFLOON </s> -0.3010
-0.3010 DRILBUR </s> -0.3010
-0.3010 DRIZZILE </s> -0.3010
-0.3010 DROWZEE </s> -0.3010
-0.3010 DRUDDIGON </s> -0.3010
-0.3010 DUBWOOL </s> -0.3010
-0.3010 DUCKLETT </s> -0.3010
-0.3010 DUGTRIO </s> -0.3010
-0.3010 DUNSPARCE </s> -0.3010
-0.3010 DUOSION </s> -0.3010
-0.3010 DURALUDON </s> -0.3010
-0.3010 DURANT </s> -0.3010
-0.3010 DUSCLOPS </s> -0.3010
-0.3010 DUSKNOIR </s> -0.3010
-0.3010 DUSKULL </s> -0.3010
-0.3010 DUSTOX </s> -0.3010
-0.3010 DWEBBLE </s> -0.3010
-0.3010 EELEKTRIK </s> -0.3010
-0.3010 EELEKTROSS </s> -0.3010
-0.3010 EEVEE </s> -0.3010
-0.3010 EISCUE </s> -0.3010
-0.3010 EKANS </s> -0.3010
-0.3010 ELDEGOSS </s> -0.3010
-0.3010 ELECTABUZZ </s> -0.3010
-0.3010 ELECTIVIRE </s> -0.3010
-0.3010 ELECTRIKE </s> -0.3010
-0.3010 ELECTRODE </s> -0.3010
-0.3010 ELEKID </s> -0.3010
-0.3010 ELGYEM </s> -0.3010
-0.3010 EMBOAR </s> -0.3010
-0.3010 EMOLGA </s> -0.3010
-0.3010 EMPOLEON </s> -0.3010
-0.3010 ENTEI </s> -0.3010
-0.3010 ESCAVALIER </s> -0.3010
-0.3010 ESPEON </s> -0.3010
-0.3010 ESPURR </s> -0.3010
-0.3010 ETERNATUS </s> -0.3010
-0.3010 EXCADRILL </s> -0.3010
-0.3010 EXEGGCUTE </s> -0.3010
-0.3010 EXEGGUTOR </s> -0.3010
-0.3010 EXPLOUD </s> -0.3010
-0.3010 F </s> -0.3010
-0.3010 FALINKS </s> -0.3010
-0.3010 FARFETCH'D </s> -0.3010
-0.3010 FEAROW </s> -0.3010
-0.3010 FEEBAS </s> -0.3010
-0.3010 FENNEKIN </s> -0.3010
-0.3010 FERALIGATR </s> -0.3010
-0.3010 FERROSEED </s> -0.3010
-0.3010 FERROTHORN </s> -0.3010
-0.3010 FINI </s> -0.3010
-0.3010 FINNEON </s> -0.3010
-0.3010 FLAAFFY </s> -0.3010
-0.3010 FLABEBE </s> -0.3010
-0.3010 FLAPPLE </s> -0.3010
-0.3010 FLAREON </s> -0.3010
-0.3010 FLETCHINDER </s> -0.3010
-0.3010 FLETCHLING </s> -0.3010
-0.3010 FLOATZEL </s> -0.3010
-0.3010 FLOETTE </s> -0.3010
-0.3010 FLORGES </s> -0.3010
-0.3010 FLYGON </s> -0.3010
-0.3010 FOMANTIS </s> -0.3010
-0.3010 FOONGUS </s> -0.3010
-0.3010 FORRETRESS </s> -0.3010
-0.3010 FRAXURE </s> -0.3010
-0.3010 FRILLISH </s> -0.3010
-0.3010 FROAKIE </s> -0.3010
-0.3010 FROGADIER </s> -0.3010
-0.3010 FROSLASS </s> -0.3010
-0.3010 FROSMOTH </s> -0.3010
-0.3010 FURFROU </s> -0.3010
-0.3010 FURRET </s> -0.3010
-0.3010 GABITE </s> -0.3010
-0.3010 GALLADE </s> -0.3010
-0.3010 GALVANTULA </s> -0.3010
-0.3010 GARBODOR </s> -0.3010
-0.3010 GARCHOMP </s> -0.3010
-0.3010 GARDEVOIR </s> -0.3010
-0.3010 GASTLY </s> -0.3010
-0.3010 GASTRODON </s> -0.3010
-0.3010 GENESECT </s> -0.3010
-0.3010 GENGAR </s> -0.3010
-0.3010 GEODUDE </s> -0.3010
-0.3010 GHOST </s> -0.3010
-0.3010 GIBLE </s> -0.3010
-0.3010 GIGALITH </s> -0.3010
-0.3010 GIRAFARIG </s> -0.3010
-0.3010 GIRATINA </s> -0.3010
-0.3010 GLACEON </s> -0.3010
-0.3010 GLALIE </s> -0.3010
-0.3010 GLAMEOW </s> -0.3010
-0.3010 GLASTRIER </s> -0.3010
-0.3010 GLIGAR </s> -0.3010
-0.3010 GLISCOR </s> -0.3010
-0.3010 GLOOM </s> -0.3010
-0.3010 GOGOAT </s> -0.3010
-0.3010 GOLBAT </s> -0.3010
-0.3010 GOLDEEN </s> -0.3010
-0.3010 GOLDUCK </s> -0.3010
-0.3010 GOLEM </s> -0.3010
-0.3010 GOLETT </s> -0.3010
-0.3010 GOLISOPOD </s> -0.3010
-0.3010 GOLURK </s> -0.3010
-0.3010 GOODRA </s> -0.3010
-0.3010 GOOMY </s> -0.3010
-0.3010 GOREBYSS </s> -0.3010
-0.3010 GOSSIFLEUR </s> -0.3010
-0.3010 GOTHITA </s> -0.3010
-0.3010 GOTHITELLE </s> -0.3010
-0.3010 GOTHORITA </s> -0.3010
-0.3010 GOURGEIST </s> -0.3010
-0.3010 GRANBULL </s> -0.3010
-0.3010 GRAPPLOCT </s> -0.3010
-0.3010 GRASS </s> -0.3010
-0.3010 GRAVELER </s> -0.3010
-0.3010 GREEDENT </s> -0.3010
-0.3010 GRENINJA </s> -0.3010
-0.3010 GRIMER </s> -0.3010
-0.3010 GRIMMSNARL </s> -0.3010
-0.3010 GROOKEY </s> -0.3010
-0.3010 GROTLE </s> -0.3010
-0.3010 GROUDON </s> -0.3010
-0.3010 GROVYLE </s> -0.3010
-0.3010 GROWLITHE </s> -0.3010
-0.3010 GRUBBIN </s> -0.3010
-0.3010 GRUMPIG </s> -0.3010
-0.3010 GULPIN </s> -0.3010
-0.3010 GUMSHOOS </s> -0.3010
-0.3010 GURDURR </s> -0.3010
-0.3010 GUZZLORD </s> -0.3010
-0.3010 GYARADOS </s> -0.3010
-0.3010 HAKAMO-O </s> -0.3010
-0.3010 HAPPINY </s> -0.3010
-0.3010 HARIYAMA </s> -0.3010
-0.3010 HATENNA </s> -0.3010
-0.3010 HATTERENE </s> -0.3010
-0.3010 HATTREM </s> -0.3010
-0.3010 HAUNTER </s> -0.3010
-0.3010 HAWLUCHA </s> -0.3010
-0.3010 HAXORUS </s> -0.3010
-0.3010 HEATMOR </s> -0.3010
-0.3010 HEATRAN </s> -0.3010
-0.3010 HELIOLISK </s> -0.3010
-0.3010 HELIOPTILE </s> -0.3010
-0.3010 HERACROSS </s> -0.3010
-0.3010 HERDIER </s> -0.3010
-0.3010 HIPPOPOTAS </s> -0.3010
-0.3010 HIPPOWDON </s> -0.3010
-0.3010 HITMONCHAN </s> -0.3010
-0.3010 HITMONLEE </s> -0.3010
-0.3010 HITMONTOP </s> -0.3010
-0.3010 HO-OH </s> -0.3010
-0.3010 HONCHKROW </s> -0.3010
-0.3010 HONEDGE </s> -0.3010
-0.3010 HOOPA </s> -0.3010
-0.3010 HOOTHOOT </s> -0.3010
-0.3010 HOPPIP </s> -0.3010
-0.3010 HORSEA </s> -0.3010
-0.3010 HOUNDOOM </s> -0.3010
-0.3010 HOUNDOUR </s> -0.3010
-0.3010 HUNTAIL </s> -0.3010
-0.3010 HYDREIGON </s> -0.3010
-0.3010 HYPNO </s> -0.3010
-0.3010 ICE </s> -0.3010
-0.3010 IGGLYBUFF </s> -0.3010
-0.3010 ILLUMISE </s> -0.3010
-0.3010 IMPIDIMP </s> -0.3010
-0.3010 INCINEROAR </s> -0.3010
-0.6021 INDEEDEE F 0.0000
-0.6021 INDEEDEE M 0.0000
-0.3010 INFERNAPE </s> -0.3010
-0.3010 INKAY </s> -0.3010
-0.3010 INTELEON </s> -0.3010
-0.3010 IVYSAUR </s> -0.3010
-0.3010 JANGMO-O </s> -0.3010
-0.3010 JELLICENT </s> -0.3010
-0.3010 JIGGLYPUFF </s> -0.3010
-0.3010 JIRACHI </s> -0.3010
-0.3010 JOLTEON </s> -0.3010
-0.3010 JOLTIK </s> -0.3010
-0.3010 JR. </s> -0.3010
-0.3010 JUMPLUFF </s> -0.3010
-0.3010 JYNX </s> -0.3010
-0.3010 KABUTO </s> -0.3010
-0.3010 KABUTOPS </s> -0.3010
-0.3010 KADABRA </s> -0.3010
-0.3010 KAKUNA </s> -0.3010
-0.3010 KANGASKHAN </s> -0.3010
-0.3010 KARRABLAST </s> -0.3010
-0.3010 KARTANA </s> -0.3010
-0.3010 KECLEON </s> -0.3010
-0.3010 KELDEO </s> -0.3010
-0.3010 KINGDRA </s> -0.3010
-0.3010 KINGLER </s> -0.3010
-0.3010 KIRLIA </s> -0.3010
-0.3010 KLANG </s> -0.3010
-0.3010 KLEFKI </s> -0.3010
-0.3010 KLINK </s> -0.3010
-0.3010 KLINKLANG </s> -0.3010
-0.3010 KOFFING </s> -0.3010
-0.3010 KOKO </s> -0.3010
-0.3010 KOMALA </s> -0.3010
-0.3010 KOMMO-O </s> -0.3010
-0.3010 KRABBY </s> -0.3010
-0.3010 KRICKETOT </s> -0.3010
-0.3010 KRICKETUNE </s> -0.3010
-0.3010 KROKOROK </s> -0.3010
-0.3010 KROOKODILE </s> -0.3010
-0.3010 KUBFU </s> -0.3010
-0.3010 KYOGRE </s> -0.3010
-0.3010 KYUREM </s> -0.3010
-0.3010 LAIRON </s> -0.3010
-0.3010 LAMPENT </s> -0.3010
-0.3010 LANDORUS </s> -0.3010
-0.3010 LANTURN </s> -0.3010
-0.3010 LAPRAS </s> -0.3010
-0.3010 LARVESTA </s> -0.3010
-0.3010 LARVITAR </s> -0.3010
-0.3010 LATIAS </s> -0.3010
-0.3010 LATIOS </s> -0.3010
-0.3010 LEAFEON </s> -0.3010
-0.3010 LEAVANNY </s> -0.3010
-0.3010 LEDIAN </s> -0.3010
-0.3010 LEDYBA </s> -0.3010
-0.3010 LELE </s> -0.3010
-0.3010 LICKILICKY </s> -0.3010
-0.3010 LICKITUNG </s> -0.3010
-0.3010 LIEPARD </s> -0.3010
-0.3010 LILEEP </s> -0.3010
-0.3010 LILLIGANT </s> -0.3010
-0.3010 LILLIPUP </s> -0.3010
-0.3010 LINOONE </s> -0.3010
-0.3010 LITLEO </s> -0.3010
-0.3010 LITTEN </s> -0.3010
-0.3010 LITWICK </s> -0.3010
-0.3010 LOMBRE </s> -0.3010
-0.3010 LOPUNNY </s> -0.3010
-0.3010 LOTAD </s> -0.3010
-0.3010 LOUDRED </s> -0.3010
-0.3010 LUCARIO </s> -0.3010
-0.3010 LUDICOLO </s> -0.3010
-0.3010 LUGIA </s> -0.3010
-0.3010 LUMINEON </s> -0.3010
-0.3010 LUNALA </s> -0.3010
-0.3010 LUNATONE </s> -0.3010
-0.3010 LURANTIS </s> -0.3010
-0.3010 LUVDISC </s> -0.3010
-0.3010 LUXIO </s> -0.3010
-0.3010 LUXRAY </s> -0.3010
-0.3010 LYCANROC </s> -0.3010
-0.3010 M </s> -0.3010
-0.3010 MACHAMP </s> -0.3010
-0.3010 MACHOKE </s> -0.3010
-0.3010 MACHOP </s> -0.3010
-0.3010 MAGBY </s> -0.3010
-0.3010 MAGCARGO </s> -0.3010
-0.3010 MAGEARNA </s> -0.3010
-0.3010 MAGIKARP </s> -0.3010
-0.3010 MAGMAR </s> -0.3010
-0.3010 MAGMORTAR </s> -0.3010
-0.3010 MAGNEMITE </s> -0.3010
-0.3010 MAGNETON </s> -0.3010
-0.3010 MAGNEZONE </s> -0.3010
-0.3010 MAKUHITA </s> -0.3010
-0.3010 MALAMAR </s> -0.3010
-0.3010 MAMOSWINE </s> -0.3010
-0.3010 MANAPHY </s> -0.3010
-0.3010 MANDIBUZZ </s> -0.3010
-0.3010 MANECTRIC </s> -0.3010
-0.3010 MANKEY </s> -0.3010
-0.3010 MANTINE </s> -0.3010
-0.3010 MANTYKE </s> -0.3010
-0.3010 MARACTUS </s> -0.3010
-0.3010 MAREANIE </s> -0.3010
-0.3010 MAREEP </s> -0.3010
-0.3010 MARILL </s> -0.3010
-0.3010 MAROWAK </s> -0.3010
-0.3010 MARSHADOW </s> -0.3010
-0.3010 MARSHTOMP </s> -0.3010
-0.3010 MASQUERAIN </s> -0.3010
-0.3010 MAWILE </s> -0.3010
-0.3010 MEDICHAM </s> -0.3010
-0.3010 MEDITITE </s> -0.3010
-1.9823 MEGA ABOMASNOW 0.0000
-1.9823 MEGA ABSOL 0.0000
-1.9823 MEGA AERODACTYL 0.0000
-1.9823 MEGA AGGRON 0.0000
-1.9823 MEGA ALAKAZAM 0.0000
-1.9823 MEGA ALTARIA 0.0000
-1.9823 MEGA AMPHAROS 0.0000
-1.9823 MEGA AUDINO 0.0000
-1.9823 MEGA BANETTE 0.0000
-1.9823 MEGA BEEDRILL 0.0000
-1.9823 MEGA BLASTOISE 0.0000
-1.9823 MEGA BLAZIKEN 0.0000
-1.9823 MEGA CAMERUPT 0.0000
-1.6812 MEGA CHARIZARD -0.1249
-1.9823 MEGA DIANCIE 0.0000
-1.9823 MEGA GALLADE 0.0000
-1.9823 MEGA GARCHOMP 0.0000
-1.9823 MEGA GARDEVOIR 0.0000
-1.9823 MEGA GENGAR 0.0000
-1.9823 MEGA GLALIE 0.0000
-1.9823 MEGA GYARADOS 0.0000
-1.9823 MEGA HERACROSS 0.0000
-1.9823 MEGA HOUNDOOM 0.0000
-1.9823 MEGA KANGASKHAN 0.0000
-1.9823 MEGA LATIAS 0.0000
-1.9823 MEGA LATIOS 0.0000
-1.9823 MEGA LOPUNNY 0.0000
-1.9823 MEGA LUCARIO 0.0000
-1.9823 MEGA MANECTRIC 0.0000
-1.9823 MEGA MAWILE 0.0000
-1.9823 MEGA MEDICHAM 0.0000
-1.9823 MEGA METAGROSS 0.0000
-1.6812 MEGA MEWTWO -0.1249
-1.9823 MEGA PIDGEOT 0.0000
-1.9823 MEGA PINSIR 0.0000
-1.9823 MEGA RAYQUAZA 0.0000
-1.9823 MEGA SABLEYE 0.0000
-1.9823 MEGA SALAMENCE 0.0000
-1.9823 MEGA SCEPTILE 0.0000
-1.9823 MEGA SCIZOR 0.0000
-1.9823 MEGA SHARPEDO 0.0000
-1.9823 MEGA SLOWBRO 0.0000
-1.9823 MEGA STEELIX 0.0000
-1.9823 MEGA SWAMPERT 0.0000
-1.9823 MEGA TYRANITAR 0.0000
-1.9823 MEGA VENUSAUR 0.0000
-0.3010 MEGANIUM </s> -0.3010
-0.3010 MELMETAL </s> -0.3010
-0.3010 MELOETTA </s> -0.3010
-0.3010 MELTAN </s> -0.3010
-0.6021 MEOWSTIC F 0.0000
-0.6021 MEOWSTIC M 0.0000
-0.3010 MEOWTH </s> -0.3010
-0.3010 MESPRIT </s> -0.3010
-0.3010 METAGROSS </s> -0.3010
-0.3010 METANG </s> -0.3010
-0.3010 METAPOD </s> -0.3010
-0.3010 MEW </s> -0.3010
-0.7782 MEWTWO </s> -0.3010
-0.7782 MEWTWO X 0.0000
-0.7782 MEWTWO Y 0.0000
-0.3010 MIENFOO </s> -0.3010
-0.3010 MIENSHAO </s> -0.3010
-0.3010 MIGHTYENA </s> -0.3010
-0.3010 MILCERY </s> -0.3010
-0.3010 MILOTIC </s> -0.3010
-0.3010 MILTANK </s> -0.3010
-0.6021 MIME </s> -0.3010
-0.6021 MIME JR. 0.0000
-0.3010 MIMIKYU </s> -0.3010
-0.3010 MINCCINO </s> -0.3010
-0.3010 MINIOR </s> -0.3010
-0.3010 MINUN </s> -0.3010
-0.3010 MISDREAVUS </s> -0.3010
-0.3010 MISMAGIUS </s> -0.3010
-0.3010 MOLTRES </s> -0.3010
-0.3010 MONFERNO </s> -0.3010
-0.3010 MORELULL </s> -0.3010
-0.3010 MORGREM </s> -0.3010
-0.3010 MORPEKO </s> -0.3010
-0.3010 MOTHIM </s> -0.3010
-0.6021 MR. MIME -0.1761
-0.6021 MR. RIME 0.0000
-0.3010 MUDBRAY </s> -0.3010
-0.3010 MUDKIP </s> -0.3010
-0.3010 MUDSDALE </s> -0.3010
-0.3010 MUK </s> -0.3010
-0.3010 MUNCHLAX </s> -0.3010
-0.3010 MUNNA </s> -0.3010
-0.3010 MURKROW </s> -0.3010
-0.3010 MUSHARNA </s> -0.3010
-0.3010 NAGANADEL </s> -0.3010
-0.3010 NATU </s> -0.3010
-0.3010 NECROZMA </s> -0.3010
-0.3010 NICKIT </s> -0.3010
-0.3010 NIDOKING </s> -0.3010
-0.3010 NIDOQUEEN </s> -0.3010
-0.6021 NIDORAN F 0.0000
-0.6021 NIDORAN M 0.0000
-0.3010 NIDORINA </s> -0.3010
-0.3010 NIDORINO </s> -0.3010
-0.3010 NIHILEGO </s> -0.3010
-0.3010 NINCADA </s> -0.3010
-0.3010 NINETALES </s> -0.3010
-0.3010 NINJASK </s> -0.3010
-0.3010 NOCTOWL </s> -0.3010
-0.3010 NOIBAT </s> -0.3010
-0.3010 NOIVERN </s> -0.3010
-0.3010 NOSEPASS </s> -0.3010
-0.3010 NULL </s> -0.3010
-0.3010 NUMEL </s> -0.3010
-0.3010 NUZLEAF </s> -0.3010
-0.3010 OBSTAGOON </s> -0.3010
-0.3010 OCTILLERY </s> -0.3010
-0.3010 ODDISH </s> -0.3010
-0.3010 OMANYTE </s> -0.3010
-0.3010 OMASTAR </s> -0.3010
-0.3010 ONIX </s> -0.3010
-0.3010 ORANGURU </s> -0.3010
-0.3010 ORBEETLE </s> -0.3010
-0.3010 ORICORIO </s> -0.3010
-0.3010 OSHAWOTT </s> -0.3010
-0.3010 PACHIRISU </s> -0.3010
-0.3010 PALKIA </s> -0.3010
-0.3010 PALOSSAND </s> -0.3010
-0.3010 PALPITOAD </s> -0.3010
-0.3010 PANCHAM </s> -0.3010
-0.3010 PANGORO </s> -0.3010
-0.3010 PANPOUR </s> -0.3010
-0.3010 PANSAGE </s> -0.3010
-0.3010 PANSEAR </s> -0.3010
-0.3010 PARAS </s> -0.3010
-0.3010 PARASECT </s> -0.3010
-0.3010 PASSIMIAN </s> -0.3010
-0.3010 PATRAT </s> -0.3010
-0.3010 PAWNIARD </s> -0.3010
-0.3010 PELIPPER </s> -0.3010
-0.3010 PERRSERKER </s> -0.3010
-0.3010 PERSIAN </s> -0.3010
-0.3010 PETILIL </s> -0.3010
-0.3010 PHANPY </s> -0.3010
-0.3010 PHANTUMP </s> -0.3010
-0.3010 PHEROMOSA </s> -0.3010
-0.3010 PHIONE </s> -0.3010
-0.3010 PICHU </s> -0.3010
-0.3010 PIDGEOT </s> -0.3010
-0.3010 PIDGEOTTO </s> -0.3010
-0.3010 PIDGEY </s> -0.3010
-0.3010 PIDOVE </s> -0.3010
-0.3010 PIGNITE </s> -0.3010
-0.3010 PIKACHU </s> -0.3010
-0.3010 PIKIPEK </s> -0.3010
-0.3010 PILOSWINE </s> -0.3010
-0.3010 PINCURCHIN </s> -0.3010
-0.3010 PINECO </s> -0.3010
-0.3010 PINSIR </s> -0.3010
-0.3010 PIPLUP </s> -0.3010
-0.3010 PLUSLE </s> -0.3010
-0.3010 POIPOLE </s> -0.3010
-0.3010 POLITOED </s> -0.3010
-0.3010 POLIWAG </s> -0.3010
-0.3010 POLIWHIRL </s> -0.3010
-0.3010 POLIWRATH </s> -0.3010
-0.3010 POLTEAGEIST </s> -0.3010
-0.3010 PONYTA </s> -0.3010
-0.3010 POOCHYENA </s> -0.3010
-0.3010 POPPLIO </s> -0.3010
-0.3010 PORYGON </s> -0.3010
-0.3010 PORYGON-Z </s> -0.3010
-0.3010 PORYGON2 </s> -0.3010
-0.6021 PRIMAL GROUDON 0.0000
-0.6021 PRIMAL KYOGRE 0.0000
-0.3010 PRIMARINA </s> -0.3010
-0.3010 PRIMEAPE </s> -0.3010
-0.3010 PRINPLUP </s> -0.3010
-0.3010 PROBOPASS </s> -0.3010
-0.3010 PSYDUCK </s> -0.3010
-0.3010 PUMPKABOO </s> -0.3010
-0.3010 PUPITAR </s> -0.3010
-0.3010 PURRLOIN </s> -0.3010
-0.3010 PURUGLY </s> -0.3010
-0.3010 PYROAR </s> -0.3010
-0.3010 PYUKUMUKU </s> -0.3010
-0.3010 QUAGSIRE </s> -0.3010
-0.3010 QUILAVA </s> -0.3010
-0.3010 QUILLADIN </s> -0.3010
-0.3010 QWILFISH </s> -0.3010
-0.3010 RABOOT </s> -0.3010
-0.3010 RAICHU </s> -0.3010
-0.3010 RAIKOU </s> -0.3010
-0.3010 RALTS </s> -0.3010
-0.3010 RAMPARDOS </s> -0.3010
-0.3010 RAPIDASH </s> -0.3010
-0.3010 RATICATE </s> -0.3010
-0.3010 RATTATA </s> -0.3010
-0.3010 RAYQUAZA </s> -0.3010
-0.3010 REGICE </s> -0.3010
-0.3010 REGIDRAGO </s> -0.3010
-0.3010 REGIELEKI </s> -0.3010
-0.3010 REGIGIGAS </s> -0.3010
-0.3010 REGIROCK </s> -0.3010
-0.3010 REGISTEEL </s> -0.3010
-0.3010 RELICANTH </s> -0.3010
-0.3010 REMORAID </s> -0.3010
-0.3010 RESHIRAM </s> -0.3010
-0.3010 REUNICLUS </s> -0.3010
-0.3010 RHYDON </s> -0.3010
-0.3010 RHYHORN </s> -0.3010
-0.3010 RHYPERIOR </s> -0.3010
-0.3010 RIBOMBEE </s> -0.3010
-0.3010 RILLABOOM </s> -0.3010
-0.3010 RIME </s> -0.3010
-0.3010 RIOLU </s> -0.3010
-0.3010 ROCKRUFF </s> -0.3010
-0.3010 ROGGENROLA </s> -0.3010
-0.3010 ROLYCOLY </s> -0.3010
-0.3010 ROOKIDEE </s> -0.3010
-0.3010 ROSELIA </s> -0.3010
-0.3010 ROSERADE </s> -0.3010
-0.3010 ROTOM </s> -0.3010
-0.3010 ROWLET </s> -0.3010
-0.3010 RUFFLET </s> -0.3010
-0.3010 RUNERIGUS </s> -0.3010
-0.3010 SABLEYE </s> -0.3010
-0.3010 SALAMENCE </s> -0.3010
-0.3010 SALANDIT </s> -0.3010
-0.3010 SALAZZLE </s> -0.3010
-0.3010 SAMUROTT </s> -0.3010
-0.3010 SANDACONDA </s> -0.3010
-0.3010 SANDILE </s> -0.3010
-0.3010 SANDSHREW </s> -0.3010
-0.3010 SANDSLASH </s> -0.3010
-0.3010 SANDYGAST </s> -0.3010
-0.3010 SAWK </s> -0.3010
-0.3010 SAWSBUCK </s> -0.3010
-0.3010 SCATTERBUG </s> -0.3010
-0.3010 SCEPTILE </s> -0.3010
-0.3010 SCIZOR </s> -0.3010
-0.3010 SCOLIPEDE </s> -0.3010
-0.3010 SCORBUNNY </s> -0.3010
-0.3010 SCRAFTY </s> -0.3010
-0.3010 SCRAGGY </s> -0.3010
-0.3010 SCYTHER </s> -0.3010
-0.3010 SEADRA </s> -0.3010
-0.3010 SEAKING </s> -0.3010
-0.3010 SEALEO </s> -0.3010
-0.3010 SEEDOT </s> -0.3010
-0.3010 SEEL </s> -0.3010
-0.3010 SEISMITOAD </s> -0.3010
-0.3010 SENTRET </s> -0.3010
-0.3010 SERPERIOR </s> -0.3010
-0.3010 SERVINE </s> -0.3010
-0.3010 SEVIPER </s> -0.3010
-0.3010 SEWADDLE </s> -0.3010
-0.3010 SHARPEDO </s> -0.3010
-0.3010 SHAYMIN </s> -0.3010
-0.3010 SHEDINJA </s> -0.3010
-0.3010 SHELGON </s> -0.3010
-0.3010 SHELLDER </s> -0.3010
-0.3010 SHELLOS </s> -0.3010
-0.3010 SHELMET </s> -0.3010
-0.3010 SHIELDON </s> -0.3010
-0.3010 SHIFTRY </s> -0.3010
-0.3010 SHIINOTIC </s> -0.3010
-0.3010 SHINX </s> -0.3010
-0.3010 SHROOMISH </s> -0.3010
-0.3010 SHUCKLE </s> -0.3010
-0.3010 SHUPPET </s> -0.3010
-0.3010 SIGILYPH </s> -0.3010
-0.3010 SILCOON </s> -0.3010
-0.3010 SILICOBRA </s> -0.3010
-0.3010 SILVALLY </s> -0.3010
-0.3010 SIMIPOUR </s> -0.3010
-0.3010 SIMISAGE </s> -0.3010
-0.3010 SIMISEAR </s> -0.3010
-0.3010 SINISTEA </s> -0.3010
-0.3010 SIRFETCH'D </s> -0.3010
-0.3010 SIZZLIPEDE </s> -0.3010
-0.3010 SKARMORY </s> -0.3010
-0.3010 SKIDDO </s> -0.3010
-0.3010 SKIPLOOM </s> -0.3010
-0.3010 SKITTY </s> -0.3010
-0.3010 SKORUPI </s> -0.3010
-0.3010 SKRELP </s> -0.3010
-0.3010 SKUNTANK </s> -0.3010
-0.3010 SKWOVET </s> -0.3010
-0.3010 SLAKING </s> -0.3010
-0.3010 SLAKOTH </s> -0.3010
-0.3010 SLIGGOO </s> -0.3010
-0.3010 SLOWBRO </s> -0.3010
-0.3010 SLOWKING </s> -0.3010
-0.3010 SLOWPOKE </s> -0.3010
-0.3010 SLUGMA </s> -0.3010
-0.3010 SLURPUFF </s> -0.3010
-0.3010 SMEARGLE </s> -0.3010
-0.3010 SMOOCHUM </s> -0.3010
-0.3010 SNEASEL </s> -0.3010
-0.3010 SNIVY </s> -0.3010
-0.3010 SNOM </s> -0.3010
-0.3010 SNORLAX </s> -0.3010
-0.3010 SNORUNT </s> -0.3010
-0.3010 SNOVER </s> -0.3010
-0.3010 SNUBBULL </s> -0.3010
-0.3010 SOBBLE </s> -0.3010
-0.3010 SOLGALEO </s> -0.3010
-0.3010 SOLOSIS </s> -0.3010
-0.3010 SOLROCK </s> -0.3010
-0.3010 SPEAROW </s> -0.3010
-0.3010 SPECTRIER </s> -0.3010
-0.3010 SPEWPA </s> -0.3010
-0.3010 SPHEAL </s> -0.3010
-0.3010 SPINARAK </s> -0.3010
-0.3010 SPINDA </s> -0.3010
-0.3010 SPIRITOMB </s> -0.3010
-0.3010 SPOINK </s> -0.3010
-0.3010 SPRITZEE </s> -0.3010
-0.3010 SQUIRTLE </s> -0.3010
-0.3010 STAKATAKA </s> -0.3010
-0.3010 STANTLER </s> -0.3010
-0.3010 STARAPTOR </s> -0.3010
-0.3010 STARAVIA </s> -0.3010
-0.3010 STARLY </s> -0.3010
-0.3010 STARMIE </s> -0.3010
-0.3010 STARYU </s> -0.3010
-0.3010 STEELIX </s> -0.3010
-0.3010 STEENEE </s> -0.3010
-0.3010 STONJOURNER </s> -0.3010
-0.3010 STOUTLAND </s> -0.3010
-0.3010 STUFFUL </s> -0.3010
-0.3010 STUNFISK </s> -0.3010
-0.3010 STUNKY </s> -0.3010
-0.3010 SUDOWOODO </s> -0.3010
-0.3010 SUICUNE </s> -0.3010
-0.3010 SUNFLORA </s> -0.3010
-0.3010 SUNKERN </s> -0.3010
-0.3010 SURSKIT </s> -0.3010
-0.3010 SWABLU </s> -0.3010
-0.3010 SWADLOON </s> -0.3010
-0.3010 SWALOT </s> -0.3010
-0.3010 SWAMPERT </s> -0.3010
-0.3010 SWANNA </s> -0.3010
-0.3010 SWELLOW </s> -0.3010
-0.3010 SWINUB </s> -0.3010
-0.3010 SWIRLIX </s> -0.3010
-0.3010 SWOOBAT </s> -0.3010
-0.3010 SYLVEON </s> -0.3010
-0.3010 TAILLOW </s> -0.3010
-0.3010 TALONFLAME </s> -0.3010
-0.3010 TANGELA </s> -0.3010
-0.3010 TANGROWTH </s> -0.3010
-0.9031 TAPU BULU 0.0000
-0.9031 TAPU FINI 0.0000
-0.9031 TAPU KOKO 0.0000
-0.9031 TAPU LELE 0.0000
-0.3010 TAUROS </s> -0.3010
-0.3010 TEDDIURSA </s> -0.3010
-0.3010 TENTACOOL </s> -0.3010
-0.3010 TENTACRUEL </s> -0.3010
-0.3010 TEPIG </s> -0.3010
-0.3010 TERRAKION </s> -0.3010
-0.3010 THIEVUL </s> -0.3010
-0.3010 THROH </s> -0.3010
-0.3010 THUNDURUS </s> -0.3010
-0.3010 THWACKEY </s> -0.3010
-0.3010 TIMBURR </s> -0.3010
-0.3010 TIRTOUGA </s> -0.3010
-0.3010 TOGEDEMARU </s> -0.3010
-0.3010 TOGEKISS </s> -0.3010
-0.3010 TOGEPI </s> -0.3010
-0.3010 TOGETIC </s> -0.3010
-0.3010 TORCHIC </s> -0.3010
-0.3010 TORKOAL </s> -0.3010
-0.3010 TORNADUS </s> -0.3010
-0.3010 TORRACAT </s> -0.3010
-0.3010 TORTERRA </s> -0.3010
-0.3010 TOTODILE </s> -0.3010
-0.3010 TOUCANNON </s> -0.3010
-0.3010 TOXAPEX </s> -0.3010
-0.3010 TOXEL </s> -0.3010
-0.3010 TOXICROAK </s> -0.3010
-0.3010 TOXTRICITY </s> -0.3010
-0.3010 TRANQUILL </s> -0.3010
-0.3010 TRAPINCH </s> -0.3010
-0.3010 TREECKO </s> -0.3010
-0.3010 TREVENANT </s> -0.3010
-0.3010 TROPIUS </s> -0.3010
-0.3010 TRUBBISH </s> -0.3010
-0.3010 TRUMBEAK </s> -0.3010
-0.3010 TSAREENA </s> -0.3010
-0.3010 TURTONATOR </s> -0.3010
-0.3010 TURTWIG </s> -0.3010
-0.3010 TYMPOLE </s> -0.3010
-0.3010 TYNAMO </s> -0.3010
-0.3010 TYPE: NULL 0.0000
-0.3010 TYPHLOSION </s> -0.3010
-0.3010 TYRANITAR </s> -0.3010
-0.3010 TYRANTRUM </s> -0.3010
-0.3010 TYROGUE </s> -0.3010
-0.3010 TYRUNT </s> -0.3010
-0.3010 UMBREON </s> -0.3010
-0.3010 UNFEZANT </s> -0.3010
-0.3010 UNOWN </s> -0.3010
-0.3010 URSARING </s> -0.3010
-0.3010 URSHIFU </s> -0.3010
-0.3010 UXIE </s> -0.3010
-0.3010 VANILLISH </s> -0.3010
-0.3010 VANILLITE </s> -0.3010
-0.3010 VANILLUXE </s> -0.3010
-0.3010 VAPOREON </s> -0.3010
-0.3010 VENIPEDE </s> -0.3010
-0.3010 VENOMOTH </s> -0.3010
-0.3010 VENONAT </s> -0.3010
-0.3010 VENUSAUR </s> -0.3010
-0.3010 VESPIQUEN </s> -0.3010
-0.3010 VIBRAVA </s> -0.3010
-0.3010 VICTINI </s> -0.3010
-0.3010 VICTREEBEL </s> -0.3010
-0.3010 VIGOROTH </s> -0.3010
-0.3010 VIKAVOLT </s> -0.3010
-0.3010 VILEPLUME </s> -0.3010
-0.3010 VIRIZION </s> -0.3010
-0.3010 VIVILLON </s> -0.3010
-0.3010 VOLBEAT </s> -0.3010
-0.3010 VOLCANION </s> -0.3010
-0.3010 VOLCARONA </s> -0.3010
-0.3010 VOLTORB </s> -0.3010
-0.3010 VULLABY </s> -0.3010
-0.3010 VULPIX </s> -0.3010
-0.3010 WAILMER </s> -0.3010
-0.3010 WAILORD </s> -0.3010
-0.3010 WALREIN </s> -0.3010
-0.3010 WARTORTLE </s> -0.3010
-0.3010 WATCHOG </s> -0.3010
-0.3010 WEAVILE </s> -0.3010
-0.3010 WEEDLE </s> -0.3010
-0.3010 WEEPINBELL </s> -0.3010
-0.3010 WEEZING </s> -0.3010
-0.3010 WHIMSICOTT </s> -0.3010
-0.3010 WHIRLIPEDE </s> -0.3010
-0.3010 WHISCASH </s> -0.3010
-0.3010 WHISMUR </s> -0.3010
-0.3010 WIGGLYTUFF </s> -0.3010
-0.3010 WIMPOD </s> -0.3010
-0.3010 WINGULL </s> -0.3010
-0.3010 WISHIWASHI </s> -0.3010
-0.3010 WOBBUFFET </s> -0.3010
-0.3010 WOOBAT </s> -0.3010
-0.3010 WOOLOO </s> -0.3010
-0.3010 WOOPER </s> -0.3010
-0.3010 WORMADAM </s> -0.3010
-0.3010 WURMPLE </s> -0.3010
-0.3010 WYNAUT </s> -0.3010
-0.3010 X </s> -0.3010
-0.3010 XATU </s> -0.3010
-0.3010 XERNEAS </s> -0.3010
-0.3010 XURKITREE </s> -0.3010
-0.3010 Y </s> -0.3010
-0.3010 YAMASK </s> -0.3010
-0.3010 YAMPER </s> -0.3010
-0.3010 YANMA </s> -0.3010
-0.3010 YANMEGA </s> -0.3010
-0.3010 YUNGOOS </s> -0.3010
-0.3010 YVELTAL </s> -0.3010
-0.3010 ZACIAN </s> -0.3010
-0.3010 ZAMAZANTA </s> -0.3010
-0.3010 ZAMAZENTA </s> -0.3010
-0.3010 ZANGOOSE </s> -0.3010
-0.3010 ZAPDOS </s> -0.3010
-0.3010 ZARUDE </s> -0.3010
-0.3010 ZEBSTRIKA </s> -0.3010
-0.3010 ZEKROM </s> -0.3010
-0.3010 ZERAORA </s> -0.3010
-0.3010 ZIGZAGOON </s> -0.3010
-0.3010 ZOROARK </s> -0.3010
-0.3010 ZORUA </s> -0.3010
-0.3010 ZUBAT </s> -0.3010
-0.3010 ZWEILOUS </s> -0.3010
-0.3010 ZYGARDE </s> -0.3010

\3-grams:
-0.3010 <s> ABOMASNOW </s>
-0.3010 <s> ABRA </s>
-0.3010 <s> ABSOL </s>
-0.3010 <s> ACCELGOR </s>
-0.3010 <s> AEGISLASH </s>
-0.3010 <s> AERODACTYL </s>
-0.3010 <s> AGGRON </s>
-0.3010 <s> AIPOM </s>
-0.3010 <s> ALAKAZAM </s>
-0.3010 <s> ALCREMIE </s>
-0.3010 <s> ALOMOMOLA </s>
-0.3010 <s> ALTARIA </s>
-0.3010 <s> AMAURA </s>
-0.3010 <s> AMBIPOM </s>
-0.3010 <s> AMOONGUSS </s>
-0.3010 <s> AMPHAROS </s>
-0.3010 <s> ANORITH </s>
-0.3010 <s> APPLETUN </s>
-0.3010 <s> APPLIN </s>
-0.3010 <s> ARAQUANID </s>
-0.3010 <s> ARBOK </s>
-0.3010 <s> ARCANINE </s>
-0.3010 <s> ARCEUS </s>
-0.3010 <s> ARCHEN </s>
-0.3010 <s> ARCHEOPS </s>
-0.3010 <s> ARCTOVISH </s>
-0.3010 <s> ARCTOZOLT </s>
-0.3010 <s> ARIADOS </s>
-0.3010 <s> ARMALDO </s>
-0.3010 <s> AROMATISSE </s>
-0.3010 <s> ARON </s>
-0.3010 <s> ARROKUDA </s>
-0.3010 <s> ARTICUNO </s>
-0.3010 <s> AUDINO </s>
-0.3010 <s> AURORUS </s>
-0.3010 <s> AVALUGG </s>
-0.3010 <s> AXEW </s>
-0.3010 <s> AZELF </s>
-0.3010 <s> AZUMARILL </s>
-0.3010 <s> AZURILL </s>
-0.3010 <s> BAGON </s>
-0.3010 <s> BALTOY </s>
-0.3010 <s> BANETTE </s>
-0.3010 <s> BARBARACLE </s>
-0.3010 <s> BARBOACH </s>
-0.3010 <s> BARRASKEWDA </s>
-0.3010 <s> BASCULIN </s>
-0.3010 <s> BASTIODON </s>
-0.3010 <s> BAYLEEF </s>
-0.3010 <s> BEARTIC </s>
-0.3010 <s> BEAUTIFLY </s>
-0.3010 <s> BEEDRILL </s>
-0.3010 <s> BEHEEYEM </s>
-0.3010 <s> BELDUM </s>
-0.3010 <s> BELLOSSOM </s>
-0.3010 <s> BELLSPROUT </s>
-0.3010 <s> BERGMITE </s>
-0.3010 <s> BEWEAR </s>
-0.3010 <s> BIBAREL </s>
-0.3010 <s> BIDOOF </s>
-0.3010 <s> BINACLE </s>
-0.3010 <s> BISHARP </s>
-0.3010 <s> BLACEPHALON </s>
-0.3010 <s> BLASTOISE </s>
-0.3010 <s> BLAZIKEN </s>
-0.3010 <s> BLIPBUG </s>
-0.3010 <s> BLISSEY </s>
-0.3010 <s> BLITZLE </s>
-0.3010 <s> BOLDORE </s>
-0.3010 <s> BOLTUND </s>
-0.3010 <s> BONSLY </s>
-0.3010 <s> BOUFFALANT </s>
-0.3010 <s> BOUNSWEET </s>
-0.3010 <s> BRAIXEN </s>
-0.3010 <s> BRAVIARY </s>
-0.3010 <s> BRELOOM </s>
-0.3010 <s> BRIONNE </s>
-0.3010 <s> BRONZONG </s>
-0.3010 <s> BRONZOR </s>
-0.3010 <s> BRUXISH </s>
-0.3010 <s> BUDEW </s>
-0.3010 <s> BUIZEL </s>
-0.3010 <s> BULBASAUR </s>
-0.3010 <s> BUNEARY </s>
-0.3010 <s> BUNNELBY </s>
-0.3010 <s> BURMY </s>
-0.3010 <s> BUTTERFREE </s>
-0.3010 <s> BUZZWOLE </s>
-0.3010 <s> CACNEA </s>
-0.3010 <s> CACTURNE </s>
-0.7782 <s> CALYREX GHOST
-0.7782 <s> CALYREX GRASS
-0.7782 <s> CALYREX ICE
-0.3010 <s> CAMERUPT </s>
-0.3010 <s> CARBINK </s>
-0.3010 <s> CARKOL </s>
-0.3010 <s> CARNIVINE </s>
-0.3010 <s> CARRACOSTA </s>
-0.3010 <s> CARVANHA </s>
-0.3010 <s> CASCOON </s>
-0.3010 <s> CASTFORM </s>
-0.3010 <s> CATERPIE </s>
-0.3010 <s> CELEBI </s>
-0.3010 <s> CELESTEELA </s>
-0.3010 <s> CENTISKORCH </s>
-0.3010 <s> CHANDELURE </s>
-0.3010 <s> CHANSEY </s>
-0.3010 <s> CHARIZARD </s>
-0.3010 <s> CHARJABUG </s>
-0.3010 <s> CHARMANDER </s>
-0.3010 <s> CHARMELEON </s>
-0.3010 <s> CHATOT </s>
-0.3010 <s> CHERRIM </s>
-0.3010 <s> CHERUBI </s>
-0.3010 <s> CHESNAUGHT </s>
-0.3010 <s> CHESPIN </s>
-0.3010 <s> CHEWTLE </s>
-0.3010 <s> CHIKORITA </s>
-0.3010 <s> CHIMCHAR </s>
-0.3010 <s> CHIMECHO </s>
-0.3010 <s> CHINCHOU </s>
-0.3010 <s> CHINGLING </s>
-0.3010 <s> CINCCINO </s>
-0.3010 <s> CINDERACE </s>
-0.3010 <s> CLAMPERL </s>
-0.3010 <s> CLAUNCHER </s>
-0.3010 <s> CLAWITZER </s>
-0.3010 <s> CLAYDOL </s>
-0.3010 <s> CLEFABLE </s>
-0.3010 <s> CLEFAIRY </s>
-0.3010 <s> CLEFFA </s>
-0.3010 <s> CLOBBOPUS </s>
-0.3010 <s> CLOYSTER </s>
-0.3010 <s> COALOSSAL </s>
-0.3010 <s> COBALION </s>
-0.3010 <s> COFAGRIGUS </s>
-0.3010 <s> COMBEE </s>
-0.3010 <s> COMBUSKEN </s>
-0.3010 <s> COMFEY </s>
-0.3010 <s> CONKELDURR </s>
-0.3010 <s> COPPERAJAH </s>
-0.3010 <s> CORPHISH </s>
-0.3010 <s> CORSOLA </s>
-0.3010 <s> CORVIKNIGHT </s>
-0.3010 <s> COSMOEM </s>
-0.3010 <s> COSMOG </s>
-0.3010 <s> COTTONEE </s>
-0.3010 <s> CRABOMINABLE </s>
-0.3010 <s> CRABRAWLER </s>
-0.3010 <s> CRADILY </s>
-0.3010 <s> CRAMORANT </s>
-0.3010 <s> CRANIDOS </s>
-0.3010 <s> CRAWDAUNT </s>
-0.3010 <s> CRESSELIA </s>
-0.3010 <s> CROAGUNK </s>
-0.3010 <s> CROBAT </s>
-0.3010 <s> CROCONAW </s>
-0.3010 <s> CROVISQUIRE </s>
-0.3010 <s> CRUSTLE </s>
-0.3010 <s> CRYOGONAL </s>
-0.3010 <s> CUBCHOO </s>
-0.3010 <s> CUBONE </s>
-0.3010 <s> CUFANT </s>
-0.3010 <s> CURSOLA </s>
-0.3010 <s> CUTIEFLY </s>
-0.3010 <s> CYNDAQUIL </s>
-0.3010 <s> DARKRAI </s>
-0.3010 <s> DARMANITAN </s>
-0.3010 <s> DARTRIX </s>
-0.3010 <s> DARUMAKA </s>
-0.3010 <s> DECIDUEYE </s>
-0.3010 <s> DEDENNE </s>
-0.3010 <s> DEERLING </s>
-0.3010 <s> DEINO </s>
-0.3010 <s> DELCATTY </s>
-0.3010 <s> DELIBIRD </s>
-0.3010 <s> DELPHOX </s>
-0.3010 <s> DEOXYS </s>
-0.3010 <s> DEWGONG </s>
-0.3010 <s> DEWOTT </s>
-0.3010 <s> DEWPIDER </s>
-0.3010 <s> DHELMISE </s>
-0.3010 <s> DIALGA </s>
-0.3010 <s> DIANCIE </s>
-0.3010 <s> DIGGERSBY </s>
-0.3010 <s> DIGLETT </s>
-0.3010 <s> DITTO </s>
-0.3010 <s> DODRIO </s>
-0.3010 <s> DODUO </s>
-0.3010 <s> DONPHAN </s>
-0.3010 <s> DOTTLER </s>
-0.3010 <s> DOUBLADE </s>
-0.3010 <s> DRACOVISH </s>
-0.3010 <s> DRACOZOLT </s>
-0.3010 <s> DRAGALGE </s>
-0.3010 <s> DRAGAPULT </s>
-0.3010 <s> DRAGONAIR </s>
-0.3010 <s> DRAGONITE </s>
-0.3010 <s> DRAKLOAK </s>
-0.3010 <s> DRAMPA </s>
-0.3010 <s> DRAPION </s>
-0.3010 <s> DRATINI </s>
-0.3010 <s> DREDNAW </s>
-0.3010 <s> DREEPY </s>
-0.3010 <s> DRIFBLIM </s>
-0.3010 <s> DRIFLOON </s>
-0.3010 <s> DRILBUR </s>
-0.3010 <s> DRIZZILE </s>
-0.3010 <s> DROWZEE </s>
-0.3010 <s> DRUDDIGON </s>
-0.3010 <s> DUBWOOL </s>
-0.3010 <s> DUCKLETT </s>
-0.3010 <s> DUGTRIO </s>
-0.3010 <s> DUNSPARCE </s>
-0.3010 <s> DUOSION </s>
-0.3010 <s> DURALUDON </s>
-0.3010 <s> DURANT </s>
-0.3010 <s> DUSCLOPS </s>
-0.3010 <s> DUSKNOIR </s>
-0.3010 <s> DUSKULL </s>
-0.3010 <s> DUSTOX </s>
-0.3010 <s> DWEBBLE </s>
-0.3010 <s> EELEKTRIK </s>
-0.3010 <s> EELEKTROSS </s>
-0.3010 <s> EEVEE </s>
-0.3010 <s> EISCUE </s>
-0.3010 <s> EKANS </s>
-0.3010 <s> ELDEGOSS </s>
-0.3010 <s> ELECTABUZZ </s>
-0.3010 <s> ELECTIVIRE </s>
-0.3010 <s> ELECTRIKE </s>
-0.3010 <s> ELECTRODE </s>
-0.3010 <s> ELEKID </s>
-0.3010 <s> ELGYEM </s>
-0.3010 <s> EMBOAR </s>
-0.3010 <s> EMOLGA </s>
-0.3010 <s> EMPOLEON </s>
-0.3010 <s> ENTEI </s>
-0.3010 <s> ESCAVALIER </s>
-0.3010 <s> ESPEON </s>
-0.3010 <s> ESPURR </s>
-0.3010 <s> ETERNATUS </s>
-0.3010 <s> EXCADRILL </s>
-0.3010 <s> EXEGGCUTE </s>
-0.3010 <s> EXEGGUTOR </s>
-0.3010 <s> EXPLOUD </s>
-0.3010 <s> FALINKS </s>
-0.3010 <s> FARFETCH'D </s>
-0.3010 <s> FEAROW </s>
-0.3010 <s> FEEBAS </s>
-0.3010 <s> FENNEKIN </s>
-0.3010 <s> FERALIGATR </s>
-0.3010 <s> FERROSEED </s>
-0.3010 <s> FERROTHORN </s>
-0.3010 <s> FINNEON </s>
-0.3010 <s> FLAAFFY </s>
-0.3010 <s> FLABEBE </s>
-0.3010 <s> FLAPPLE </s>
-0.3010 <s> FLAREON </s>
-0.3010 <s> FLETCHINDER </s>
-0.3010 <s> FLETCHLING </s>
-0.3010 <s> FLOATZEL </s>
-0.3010 <s> FLOETTE </s>
-0.3010 <s> FLORGES </s>
-0.3010 <s> FLYGON </s>
-0.3010 <s> FOMANTIS </s>
-0.3010 <s> FOONGUS </s>
-0.3010 <s> FORRETRESS </s>
-0.3010 <s> FRAXURE </s>
-0.3010 <s> FRILLISH </s>
-0.3010 <s> FROAKIE </s>
-0.3010 <s> FROGADIER </s>
-0.3010 <s> FROSLASS </s>
-0.3010 <s> FROSMOTH </s>
-0.3010 <s> FURFROU </s>
-0.3010 <s> FURRET </s>
-0.3010 <s> GABITE </s>
-0.3010 <s> GALLADE </s>
-0.3010 <s> GALVANTULA </s>
-0.3010 <s> GARBODOR </s>
-0.3010 <s> GARCHOMP </s>
-0.3010 <s> GARDEVOIR </s>
-0.3010 <s> GASTLY </s>
-0.3010 <s> GASTRODON </s>
-0.3010 <s> GENESECT </s>
-0.3010 <s> GENGAR </s>
-0.3010 <s> GEODUDE </s>
-0.3010 <s> GIBLE </s>
-0.3010 <s> GIGALITH </s>
-0.3010 <s> GIRAFARIG </s>
-0.3010 <s> GIRATINA </s>
-0.3010 <s> GLACEON </s>
-0.3010 <s> GLALIE </s>
-0.3010 <s> GLAMEOW </s>
-0.3010 <s> GLASTRIER </s>
-0.3010 <s> GLIGAR </s>
-0.3010 <s> GLISCOR </s>
-0.3010 <s> GLOOM </s>
-0.3010 <s> GOGOAT </s>
-0.3010 <s> GOLBAT </s>
-0.3010 <s> GOLDEEN </s>
-0.3010 <s> GOLDUCK </s>
-0.3010 <s> GOLEM </s>
-0.3010 <s> GOLETT </s>
-0.3010 <s> GOLISOPOD </s>
-0.3010 <s> GOLURK </s>
-0.3010 <s> GOODRA </s>
-0.3010 <s> GOOMY </s>
-0.3010 <s> GOREBYSS </s>
-0.3010 <s> GOSSIFLEUR </s>
-0.3010 <s> GOTHITA </s>
-0.3010 <s> GOTHITELLE </s>
-0.3010 <s> GOTHORITA </s>
-0.3010 <s> GOURGEIST </s>
-0.3010 <s> GRANBULL </s>
-0.3010 <s> GRAPPLOCT </s>
-0.3010 <s> GRAVELER </s>
-0.3010 <s> GREEDENT </s>
-0.3010 <s> GRENINJA </s>
-0.3010 <s> GRIMER </s>
-0.3010 <s> GRIMMSNARL </s>
-0.3010 <s> GROOKEY </s>
-0.3010 <s> GROTLE </s>
-0.3010 <s> GROUDON </s>
-0.3010 <s> GROVYLE </s>
-0.3010 <s> GROWLITHE </s>
-0.3010 <s> GRUBBIN </s>
-0.3010 <s> GRUMPIG </s>
-0.3010 <s> GULPIN </s>
-0.3010 <s> GUMSHOOS </s>
-0.3010 <s> GURDURR </s>
-0.3010 <s> GUZZLORD </s>
-0.3010 <s> GYARADOS </s>
-0.3010 <s> HAKAMO-O </s>
-0.3010 <s> HAPPINY </s>
-0.3010 <s> HARIYAMA </s>
-0.3010 <s> HATENNA </s>
-0.3010 <s> HATTERENE </s>
-0.3010 <s> HATTREM </s>
-0.3010 <s> HAUNTER </s>
-0.3010 <s> HAWLUCHA </s>
-0.3010 <s> HAXORUS </s>
-0.3010 <s> HEATMOR </s>
-0.3010 <s> HEATRAN </s>
-0.3010 <s> HELIOLISK </s>
-0.3010 <s> HELIOPTILE </s>
-0.3010 <s> HERACROSS </s>
-0.3010 <s> HERDIER </s>
-0.3010 <s> HIPPOPOTAS </s>
-0.3010 <s> HIPPOWDON </s>
-0.3010 <s> HITMONCHAN </s>
-0.3010 <s> HITMONLEE </s>
-0.3010 <s> HITMONTOP </s>
-0.3010 <s> HO-OH </s>
-0.3010 <s> HONCHKROW </s>
-0.3010 <s> HONEDGE </s>
-0.3010 <s> HOOPA </s>
-0.3010 <s> HOOTHOOT </s>
-0.3010 <s> HOPPIP </s>
-0.3010 <s> HORSEA </s>
-0.3010 <s> HOUNDOOM </s>
-0.3010 <s> HOUNDOUR </s>
-0.3010 <s> HUNTAIL </s>
-0.3010 <s> HYDREIGON </s>
-0.3010 <s> HYPNO </s>
-0.3010 <s> IGGLYBUFF </s>
-0.3010 <s> ILLUMISE </s>
-0.3010 <s> IMPIDIMP </s>
-0.3010 <s> INCINEROAR </s>
-0.6021 <s> INDEEDEE F
-0.6021 <s> INDEEDEE M
-0.3010 <s> INFERNAPE </s>
-0.3010 <s> INKAY </s>
-0.3010 <s> INTELEON </s>
-0.3010 <s> IVYSAUR </s>
-0.3010 <s> JANGMO-O </s>
-0.3010 <s> JELLICENT </s>
-0.3010 <s> JIGGLYPUFF </s>
-0.3010 <s> JIRACHI </s>
-0.3010 <s> JOLTEON </s>
-0.3010 <s> JOLTIK </s>
-0.3010 <s> JUMPLUFF </s>
-0.3010 <s> JYNX </s>
-0.3010 <s> KABUTO </s>
-0.3010 <s> KABUTOPS </s>
-0.3010 <s> KADABRA </s>
-0.3010 <s> KAKUNA </s>
-0.3010 <s> KANGASKHAN </s>
-0.3010 <s> KARRABLAST </s>
-0.3010 <s> KARTANA </s>
-0.3010 <s> KECLEON </s>
-0.3010 <s> KELDEO </s>
-0.3010 <s> KINGDRA </s>
-0.3010 <s> KINGLER </s>
-0.3010 <s> KIRLIA </s>
-0.3010 <s> KLANG </s>
-0.3010 <s> KLEFKI </s>
-0.3010 <s> KLINK </s>
-0.3010 <s> KLINKLANG </s>
-0.3010 <s> KOFFING </s>
-0.3010 <s> KOMALA </s>
-0.3010 <s> KOMMO-O </s>
-0.3010 <s> KRABBY </s>
-0.3010 <s> KRICKETOT </s>
-0.3010 <s> KRICKETUNE </s>
-0.3010 <s> KROKOROK </s>
-0.3010 <s> KROOKODILE </s>
-0.3010 <s> KUBFU </s>
-0.3010 <s> KYOGRE </s>
-0.3010 <s> KYUREM </s>
-0.3010 <s> LAIRON </s>
-0.3010 <s> LAMPENT </s>
-0.3010 <s> LANDORUS </s>
-0.3010 <s> LANTURN </s>
-0.3010 <s> LAPRAS </s>
-0.3010 <s> LARVESTA </s>
-0.3010 <s> LARVITAR </s>
-0.3010 <s> LATIAS </s>
-0.3010 <s> LATIOS </s>
-0.3010 <s> LEAFEON </s>
-0.3010 <s> LEAVANNY </s>
-0.3010 <s> LEDIAN </s>
-0.3010 <s> LEDYBA </s>
-0.3010 <s> LICKILICKY </s>
-0.3010 <s> LICKITUNG </s>
-0.3010 <s> LIEPARD </s>
-0.3010 <s> LILEEP </s>
-0.3010 <s> LILLIGANT </s>
-0.3010 <s> LILLIPUP </s>
-0.3010 <s> LINOONE </s>
-0.3010 <s> LITLEO </s>
-0.3010 <s> LITTEN </s>
-0.3010 <s> LITWICK </s>
-0.3010 <s> LOMBRE </s>
-0.3010 <s> LOPUNNY </s>
-0.3010 <s> LOTAD </s>
-0.3010 <s> LOUDRED </s>
-0.3010 <s> LUCARIO </s>
-0.3010 <s> LUDICOLO </s>
-0.3010 <s> LUGIA </s>
-0.3010 <s> LUMINEON </s>
-0.3010 <s> LUNALA </s>
-0.3010 <s> LUNATONE </s>
-0.3010 <s> LURANTIS </s>
-0.3010 <s> LUVDISC </s>
-0.3010 <s> LUXIO </s>
-0.3010 <s> LUXRAY </s>
-0.3010 <s> LYCANROC </s>
-0.3010 <s> MACHAMP </s>
-0.3010 <s> MACHOKE </s>
-0.3010 <s> MACHOP </s>
-0.3010 <s> MAGBY </s>
-0.3010 <s> MAGCARGO </s>
-0.3010 <s> MAGEARNA </s>
-0.3010 <s> MAGIKARP </s>
-0.3010 <s> MAGMAR </s>
-0.3010 <s> MAGMORTAR </s>
-0.3010 <s> MAGNEMITE </s>
-0.3010 <s> MAGNETON </s>
-0.3010 <s> MAGNEZONE </s>
-0.3010 <s> MAKUHITA </s>
-0.3010 <s> MALAMAR </s>
-0.3010 <s> MAMOSWINE </s>
-0.3010 <s> MANAPHY </s>
-0.3010 <s> MANDIBUZZ </s>
-0.3010 <s> MANECTRIC </s>
-0.3010 <s> MANKEY </s>
-0.3010 <s> MANTINE </s>
-0.3010 <s> MANTYKE </s>
-0.3010 <s> MARACTUS </s>
-0.3010 <s> MAREANIE </s>
-0.3010 <s> MAREEP </s>
-0.3010 <s> MARILL </s>
-0.3010 <s> MAROWAK </s>
-0.3010 <s> MARSHADOW </s>
-0.3010 <s> MARSHTOMP </s>
-0.3010 <s> MASQUERAIN </s>
-0.3010 <s> MAWILE </s>
-0.3010 <s> MEDICHAM </s>
-0.3010 <s> MEDITITE </s>
-1.9823 <s> MEGA ABOMASNOW
-1.9823 <s> MEGA ABSOL
-1.9823 <s> MEGA AERODACTYL
-1.9823 <s> MEGA AGGRON
-1.9823 <s> MEGA ALAKAZAM
-1.9823 <s> MEGA ALTARIA
-1.9823 <s> MEGA AMPHAROS
-1.9823 <s> MEGA AUDINO
-1.9823 <s> MEGA BANETTE
-1.9823 <s> MEGA BEEDRILL
-1.9823 <s> MEGA BLASTOISE
-1.9823 <s> MEGA BLAZIKEN
-1.9823 <s> MEGA CAMERUPT
-1.6812 <s> MEGA CHARIZARD
-1.9823 <s> MEGA DIANCIE
-1.9823 <s> MEGA GALLADE
-1.9823 <s> MEGA GARCHOMP
-1.9823 <s> MEGA GARDEVOIR
-1.9823 <s> MEGA GENGAR
-1.9823 <s> MEGA GLALIE
-1.9823 <s> MEGA GYARADOS
-1.9823 <s> MEGA HERACROSS
-1.9823 <s> MEGA HOUNDOOM
-1.9823 <s> MEGA KANGASKHAN
-1.9823 <s> MEGA LATIAS
-1.9823 <s> MEGA LATIOS
-1.9823 <s> MEGA LOPUNNY
-1.9823 <s> MEGA LUCARIO
-1.9823 <s> MEGA MANECTRIC
-1.9823 <s> MEGA MAWILE
-1.9823 <s> MEGA MEDICHAM
-1.9823 <s> MEGA METAGROSS
-1.6812 <s> MEGA MEWTWO
-1.9823 <s> MEGA PIDGEOT
-1.9823 <s> MEGA PINSIR
-1.9823 <s> MEGA RAYQUAZA
-1.9823 <s> MEGA SABLEYE
-1.9823 <s> MEGA SALAMENCE
-1.9823 <s> MEGA SCEPTILE
-1.9823 <s> MEGA SCIZOR
-1.9823 <s> MEGA SHARPEDO
-1.9823 <s> MEGA SLOWBRO
-1.9823 <s> MEGA STEELIX
-1.9823 <s> MEGA SWAMPERT
-1.9823 <s> MEGA TYRANITAR
-1.9823 <s> MEGA VENUSAUR
-0.3010 <s> MEGANIUM </s>
-0.3010 <s> MELMETAL </s>
-0.3010 <s> MELOETTA </s>
-0.3010 <s> MELTAN </s>
-0.6021 <s> MEOWSTIC F
-0.6021 <s> MEOWSTIC M
-0.3010 <s> MEOWTH </s>
-0.3010 <s> MESPRIT </s>
-0.3010 <s> METAGROSS </s>
-0.3010 <s> METANG </s>
-0.3010 <s> METAPOD </s>
-0.3010 <s> MEW </s>
-0.3010 <s> MEWTWO </s>
-0.3010 <s> MIENFOO </s>
-0.3010 <s> MIENSHAO </s>
-0.3010 <s> MIGHTYENA </s>
-0.3010 <s> MILCERY </s>
-0.3010 <s> MILOTIC </s>
-0.3010 <s> MILTANK </s>
-0.3010 <s> MIME JR.
-0.3010 <s> MIMIKYU </s>
-0.3010 <s> MINCCINO </s>
-0.3010 <s> MINIOR </s>
-0.3010 <s> MINUN </s>
-0.3010 <s> MISDREAVUS </s>
-0.3010 <s> MISMAGIUS </s>
-0.3010 <s> MOLTRES </s>
-0.3010 <s> MONFERNO </s>
-0.3010 <s> MORELULL </s>
-0.3010 <s> MORGREM </s>
-0.3010 <s> MORPEKO </s>
-0.3010 <s> MOTHIM </s>
-0.6021 <s> MR. MIME
-0.6021 <s> MR. RIME
-0.3010 <s> MUDBRAY </s>
-0.3010 <s> MUDKIP </s>
-0.3010 <s> MUDSDALE </s>
-0.3010 <s> MUK </s>
-0.3010 <s> MUNCHLAX </s>
-0.3010 <s> MUNNA </s>
-0.3010 <s> MURKROW </s>
-0.3010 <s> MUSHARNA </s>
-0.3010 <s> NAGANADEL </s>
-0.3010 <s> NATU </s>
-0.3010 <s> NECROZMA </s>
-0.3010 <s> NICKIT </s>
-0.3010 <s> NIDOKING </s>
-0.3010 <s> NIDOQUEEN </s>
-0.6021 <s> NIDORAN F
-0.6021 <s> NIDORAN M
-0.3010 <s> NIDORINA </s>
-0.3010 <s> NIDORINO </s>
-0.3010 <s> NIHILEGO </s>
-0.3010 <s> NINCADA </s>
-0.3010 <s> NINETALES </s>
-0.3010 <s> NINJASK </s>
-0.3010 <s> NOCTOWL </s>
-0.3010 <s> NOIBAT </s>
-0.3010 <s> NOIVERN </s>
-0.3010 <s> NOSEPASS </s>
-0.3010 <s> NUMEL </s>
-0.3010 <s> NUZLEAF </s>
-0.3010 <s> OBSTAGOON </s>
-0.3010 <s> OCTILLERY </s>
-0.3010 <s> ODDISH </s>
-0.3010 <s> OMANYTE </s>
-0.3010 <s> OMASTAR </s>
-0.3010 <s> ONIX </s>
-0.3010 <s> ORANGURU </s>
-0.3010 <s> ORBEETLE </s>
-0.3010 <s> ORICORIO </s>
-0.3010 <s> OSHAWOTT </s>
-0.3010 <s> PACHIRISU </s>
-0.3010 <s> PALKIA </s>
-0.3010 <s> PALOSSAND </s>
-0.3010 <s> PALPITOAD </s>
-0.3010 <s> PANCHAM </s>
-0.3010 <s> PANGORO </s>
-0.3010 <s> PANPOUR </s>
-0.3010 <s> PANSAGE </s>
-0.3010 <s> PANSEAR </s>
-0.3010 <s> PARAS </s>
-0.3010 <s> PARASECT </s>
-0.3010 <s> PASSIMIAN </s>
-0.3010 <s> PATRAT </s>
-0.3010 <s> PAWNIARD </s>
-0.3010 <s> PELIPPER </s>
-0.3010 <s> PERRSERKER </s>
-0.3010 <s> PERSIAN </s>
-0.3010 <s> PETILIL </s>
-0.3010 <s> PHANPY </s>
-0.3010 <s> PHANTUMP </s>
-0.3010 <s> PHEROMOSA </s>
-0.3010 <s> PHIONE </s>
-0.3010 <s> PICHU </s>
-0.3010 <s> PIDGEOT </s>
-0.3010 <s> PIDGEOTTO </s>
-0.3010 <s> PIDGEY </s>
-0.3010 <s> PIDOVE </s>
-0.3010 <s> PIGNITE </s>
-0.3010 <s> PIKACHU </s>
-0.3010 <s> PIKIPEK </s>
-0.3010 <s> PILOSWINE </s>
-0.3010 <s> PINCURCHIN </s>
-0.3010 <s> PINECO </s>
-0.3010 <s> PINSIR </s>
-0.3010 <s> PIPLUP </s>
-0.3010 <s> PLUSLE </s>
-0.3010 <s> POIPOLE </s>
-0.3010 <s> POLITOED </s>
-0.3010 <s> POLIWAG </s>
-0.3010 <s> POLIWHIRL </s>
-0.3010 <s> POLIWRATH </s>
-0.3010 <s> POLTEAGEIST </s>
-0.3010 <s> PONYTA </s>
-0.3010 <s> POOCHYENA </s>
-0.3010 <s> POPPLIO </s>
-0.3010 <s> PORYGON </s>
-0.3010 <s> PORYGON-Z </s>
-0.3010 <s> PORYGON2 </s>
-0.6021 <s> PRIMAL GROUDON
-0.6021 <s> PRIMAL KYOGRE
-0.3010 <s> PRIMARINA </s>
-0.3010 <s> PRIMEAPE </s>
-0.3010 <s> PRINPLUP </s>
-0.3010 <s> PROBOPASS </s>
-0.3010 <s> PSYDUCK </s>
-0.3010 <s> PUMPKABOO </s>
-0.3010 <s> PUPITAR </s>
-0.3010 <s> PURRLOIN </s>
-0.3010 <s> PURUGLY </s>
-0.3010 <s> PYROAR </s>
-0.3010 <s> PYUKUMUKU </s>
-0.3010 <s> QUAGSIRE </s>
-0.3010 <s> QUILAVA </s>
-0.3010 <s> QUILLADIN </s>
-0.3010 <s> QWILFISH </s>
-0.3010 <s> RABOOT </s>
-0.3010 <s> RAICHU </s>
-0.3010 <s> RAIKOU </s>
-0.3010 <s> RALTS </s>
-0.3010 <s> RAMPARDOS </s>
-0.3010 <s> RAPIDASH </s>
-0.3010 <s> RATICATE </s>
-0.3010 <s> RATTATA </s>
-0.3010 <s> RAYQUAZA </s>
-0.3010 <s> REGICE </s>
-0.3010 <s> REGIDRAGO </s>
-0.3010 <s> REGIELEKI </s>
-0.3010 <s> REGIGIGAS </s>
-0.3010 <s> REGIROCK </s>
-0.3010 <s> REGISTEEL </s>
-0.3010 <s> RELICANTH </s>
-0.3010 <s> REMORAID </s>
-0.3010 <s> RESHIRAM </s>
-0.3010 <s> REUNICLUS </s>
-0.3010 <s> RHYDON </s>
-0.3010 <s> RHYHORN </s>
-0.3010 <s> RHYPERIOR </s>
-0.3010 <s> RIBOMBEE </s>
-0.3010 <s> RILLABOOM </s>
-0.3010 <s> RIOLU </s>
-0.3010 <s> ROCKRUFF </s>
-0.3010 <s> ROGGENROLA </s>
-0.3010 <s> ROLYCOLY </s>
-0.3010 <s> ROOKIDEE </s>
-0.3010 <s> ROSELIA </s>
-0.3010 <s> ROSERADE </s>
-0.3010 <s> ROTOM </s>
-0.3010 <s> ROWLET </s>
-0.3010 <s> RUFFLET </s>
-0.3010 <s> RUNERIGUS </s>
-0.3010 <s> SABLEYE </s>
-0.3010 <s> SALAMENCE </s>
-0.3010 <s> SALANDIT </s>
-0.3010 <s> SALAZZLE </s>
-0.3010 <s> SAMUROTT </s>
-0.3010 <s> SANDACONDA </s>
-0.3010 <s> SANDILE </s>
-0.3010 <s> SANDSHREW </s>
-0.3010 <s> SANDSLASH </s>
-0.3010 <s> SANDYGAST </s>
-0.3010 <s> SAWK </s>
-0.3010 <s> SAWSBUCK </s>
-0.3010 <s> SCATTERBUG </s>
-0.3010 <s> SCEPTILE </s>
-0.3010 <s> SCIZOR </s>
-0.3010 <s> SCOLIPEDE </s>
-0.3010 <s> SCORBUNNY </s>
-0.3010 <s> SCRAFTY </s>
-0.3010 <s> SCRAGGY </s>
-0.3010 <s> SCYTHER </s>
-0.3010 <s> SEADRA </s>
-0.3010 <s> SEAKING </s>
-0.3010 <s> SEALEO </s>
-0.3010 <s> SEEDOT </s>
-0.3010 <s> SEEL </s>
-0.3010 <s> SEISMITOAD </s>
-0.3010 <s> SENTRET </s>
-0.3010 <s> SERPERIOR </s>
-0.3010 <s> SERVINE </s>
-0.3010 <s> SEVIPER </s>
-0.3010 <s> SEWADDLE </s>
-0.3010 <s> SHARPEDO </s>
-0.3010 <s> SHAYMIN </s>
-0.3010 <s> SHEDINJA </s>
-0.3010 <s> SHELGON </s>
-0.3010 <s> SHELLDER </s>
-0.3010 <s> SHELLOS </s>
-0.3010 <s> SHELMET </s>
-0.3010 <s> SHIELDON </s>
-0.3010 <s> SHIFTRY </s>
-0.3010 <s> SHIINOTIC </s>
-0.3010 <s> SHINX </s>
-0.3010 <s> SHROOMISH </s>
-0.3010 <s> SHUCKLE </s>
-0.3010 <s> SHUPPET </s>
-0.3010 <s> SIGILYPH </s>
-0.3010 <s> SILCOON </s>
-0.3010 <s> SILICOBRA </s>
-0.3010 <s> SILVALLY </s>
-0.3010 <s> SIMIPOUR </s>
-0.3010 <s> SIMISAGE </s>
-0.3010 <s> SIMISEAR </s>
-0.3010 <s> SINISTEA </s>
-0.3010 <s> SIRFETCH'D </s>
-0.3010 <s> SIZZLIPEDE </s>
-0.3010 <s> SKARMORY </s>
-0.3010 <s> SKIDDO </s>
-0.3010 <s> SKIPLOOM </s>
-0.3010 <s> SKITTY </s>
-0.3010 <s> SKORUPI </s>
-0.3010 <s> SKRELP </s>
-0.3010 <s> SKUNTANK </s>
-0.3010 <s> SKWOVET </s>
-0.3010 <s> SLAKING </s>
-0.3010 <s> SLAKOTH </s>
-0.3010 <s> SLIGGOO </s>
-0.3010 <s> SLOWBRO </s>
-0.3010 <s> SLOWKING </s>
-0.3010 <s> SLOWPOKE </s>
-0.3010 <s> SLUGMA </s>
-0.3010 <s> SLURPUFF </s>
-0.3010 <s> SMEARGLE </s>
-0.3010 <s> SMOOCHUM </s>
-0.3010 <s> SNEASEL </s>
-0.3010 <s> SNIVY </s>
-0.3010 <s> SNOM </s>
-0.3010 <s> SNORLAX </s>
-0.3010 <s> SNORUNT </s>
-0.3010 <s> SNOVER </s>
-0.3010 <s> SNUBBULL </s>
-0.3010 <s> SOBBLE </s>
-0.3010 <s> SOLGALEO </s>
-0.3010 <s> SOLOSIS </s>
-0.3010 <s> SOLROCK </s>
-0.3010 <s> SPEAROW </s>
-0.3010 <s> SPECTRIER </s>
-0.3010 <s> SPEWPA </s>
-0.3010 <s> SPHEAL </s>
-0.3010 <s> SPINARAK </s>
-0.3010 <s> SPINDA </s>
-0.3010 <s> SPIRITOMB </s>
-0.3010 <s> SPOINK </s>
-0.3010 <s> SPRITZEE </s>
-0.3010 <s> SQUIRTLE </s>
-0.3010 <s> STAKATAKA </s>
-0.3010 <s> STANTLER </s>
-0.3010 <s> STARAPTOR </s>
-0.3010 <s> STARAVIA </s>
-0.3010 <s> STARLY </s>
-0.3010 <s> STARMIE </s>
-0.3010 <s> STARYU </s>
-0.3010 <s> STEELIX </s>
-0.3010 <s> STEENEE </s>
-0.3010 <s> STONJOURNER </s>
-0.3010 <s> STOUTLAND </s>
-0.3010 <s> STUFFUL </s>
-0.3010 <s> STUNFISK </s>
-0.3010 <s> STUNKY </s>
-0.3010 <s> SUDOWOODO </s>
-0.3010 <s> SUICUNE </s>
-0.3010 <s> SUNFLORA </s>
-0.3010 <s> SUNKERN </s>
-0.3010 <s> SURSKIT </s>
-0.3010 <s> SWABLU </s>
-0.3010 <s> SWADLOON </s>
-0.3010 <s> SWALOT </s>
-0.3010 <s> SWAMPERT </s>
-0.3010 <s> SWANNA </s>
-0.3010 <s> SWELLOW </s>
-0.3010 <s> SWINUB </s>
-0.3010 <s> SWIRLIX </s>
-0.3010 <s> SWOOBAT </s>
-0.3010 <s> SYLVEON </s>
-0.3010 <s> TAILLOW </s>
-0.3010 <s> TALONFLAME </s>
-0.3010 <s> TANGELA </s>
-0.3010 <s> TANGROWTH </s>
-0.9031 <s> TAPU BULU
-0.9031 <s> TAPU FINI
-0.9031 <s> TAPU KOKO
-0.9031 <s> TAPU LELE
-0.3010 <s> TAUROS </s>
-0.3010 <s> TEDDIURSA </s>
-0.3010 <s> TENTACOOL </s>
-0.3010 <s> TENTACRUEL </s>
-0.3010 <s> TEPIG </s>
-0.3010 <s> TERRAKION </s>
-0.3010 <s> THIEVUL </s>
-0.3010 <s> THROH </s>
-0.3010 <s> THUNDURUS </s>
-0.3010 <s> THWACKEY </s>
-0.3010 <s> TIMBURR </s>
-0.3010 <s> TIRTOUGA </s>
-0.3010 <s> TOGEDEMARU </s>
-0.3010 <s> TOGEKISS </s>
-0.3010 <s> TOGEPI </s>
-0.3010 <s> TOGETIC </s>
-0.3010 <s> TORCHIC </s>
-0.3010 <s> TORKOAL </s>
-0.3010 <s> TORNADUS </s>
-0.3010 <s> TORRACAT </s>
-0.3010 <s> TORTERRA </s>
-0.3010 <s> TOTODILE </s>
-0.3010 <s> TOUCANNON </s>
-0.3010 <s> TOXAPEX </s>
-0.3010 <s> TOXEL </s>
-0.3010 <s> TOXICROAK </s>
-0.3010 <s> TOXTRICITY </s>
-0.3010 <s> TRANQUILL </s>
-0.3010 <s> TRAPINCH </s>
-0.3010 <s> TREECKO </s>
-0.3010 <s> TREVENANT </s>
-0.3010 <s> TROPIUS </s>
-0.3010 <s> TRUBBISH </s>
-0.3010 <s> TRUMBEAK </s>
-0.3010 <s> TSAREENA </s>
-0.3010 <s> TURTONATOR </s>
-0.3010 <s> TURTWIG </s>
-0.3010 <s> TYMPOLE </s>
-0.3010 <s> TYNAMO </s>
-0.3010 <s> TYPE: NULL
-0.3010 <s> TYPHLOSION </s>
-0.3010 <s> TYRANITAR </s>
-0.3010 <s> TYRANTRUM </s>
-0.3010 <s> TYROGUE </s>
-0.3010 <s> TYRUNT </s>
-0.3010 <s> UMBREON </s>
-0.3010 <s> UNFEZANT </s>
-0.3010 <s> UNOWN </s>
-0.3010 <s> URSARING </s>
-0.3010 <s> URSHIFU </s>
-0.3010 <s> UXIE </s>
-0.3010 <s> VANILLISH </s>
-0.3010 <s> VANILLITE </s>
-0.3010 <s> VANILLUXE </s>
-0.3010 <s> VAPOREON </s>
-0.3010 <s> VENIPEDE </s>
-0.3010 <s> VENOMOTH </s>
-0.3010 <s> VENONAT </s>
-0.3010 <s> VENUSAUR </s>
-0.3010 <s> VESPIQUEN </s>
-0.3010 <s> VIBRAVA </s>
-0.3010 <s> VICTINI </s>
-0.3010 <s> VICTREEBEL </s>
-0.3010 <s> VIGOROTH </s>
-0.3010 <s> VIKAVOLT </s>
-0.3010 <s> VILEPLUME </s>
-0.3010 <s> VIRIZION </s>
-0.3010 <s> VIVILLON </s>
-0.3010 <s> VOLBEAT </s>
-0.3010 <s> VOLCANION </s>
-0.3010 <s> VOLCARONA </s>
-0.3010 <s> VOLTORB </s>
-0.3010 <s> VULLABY </s>
-0.3010 <s> VULPIX </s>
-0.3010 <s> WAILMER </s>
-0.3010 <s> WAILORD </s>
-0.3010 <s> WALREIN </s>
-0.3010 <s> WARTORTLE </s>
-0.3010 <s> WATCHOG </s>
-0.3010 <s> WEAVILE </s>
-0.3010 <s> WEEDLE </s>
-0.3010 <s> WEEPINBELL </s>
-0.3010 <s> WEEZING </s>
-0.3010 <s> WHIMSICOTT </s>
-0.3010 <s> WHIRLIPEDE </s>
-0.3010 <s> WHISCASH </s>
-0.3010 <s> WHISMUR </s>
-0.3010 <s> WIGGLYTUFF </s>
-0.3010 <s> WIMPOD </s>
-0.3010 <s> WINGULL </s>
-0.3010 <s> WISHIWASHI </s>
-0.3010 <s> WOBBUFFET </s>
-0.3010 <s> WOOBAT </s>
-0.3010 <s> WOOLOO </s>
-0.3010 <s> WOOPER </s>
-0.3010 <s> WORMADAM </s>
-0.3010 <s> WURMPLE </s>
-0.3010 <s> WYNAUT </s>
-0.3010 <s> XATU </s>
-0.3010 <s> XERNEAS </s>
-0.3010 <s> XURKITREE </s>
-0.3010 <s> YAMASK </s>
-0.3010 <s> YAMPER </s>
-0.3010 <s> YANMA </s>
-0.3010 <s> YANMEGA </s>
-0.3010 <s> YUNGOOS </s>
-0.3010 <s> YVELTAL </s>
-0.3010 <s> ZACIAN </s>
-0.3010 <s> ZAMAZANTA </s>
-0.3010 <s> ZAMAZENTA </s>
-0.3010 <s> ZANGOOSE </s>
-0.3010 <s> ZAPDOS </s>
-0.3010 <s> ZARUDE </s>
